%YAML:1.0
---
opencv_ml_svm:
   format: 3
   svmType: C_SVC
   kernel:
      type: LINEAR
   C: 2.6699999999999999e+00
   term_criteria: { epsilon:1.1920928955078125e-07, iterations:1000 }
   var_count: 12
   class_count: 10
   class_labels: !!opencv-matrix
      rows: 10
      cols: 1
      dt: i
      data: [ 0, 1, 2, 3, 4, 5, 6, 7, 8, 9 ]
   sv_total: 45
   support_vectors:
      - [ -9.63186721e-06, 1.01963651e-05, 7.11234898e-05,
          -1.12363588e-04, 4.92334482e-04, 1.12988615e-04,
          -1.03009406e-04, 6.74668918e-05, 1.52850349e-04,
          3.41729639e-04, 9.15216588e-05, -9.53049821e-05 ]
      - [ 3.78443598e-04, 7.17126590e-04, -1.03210587e-04,
          -4.73772845e-04, 6.55765412e-04, -8.18399494e-05,
          3.79401099e-05, -9.58843666e-05, 8.46004259e-05,
          2.71992612e-04, 4.26289567e-04, -3.89281980e-04 ]
      - [ 3.30014263e-05, 1.92230058e-04, -1.21667625e-04,
          -3.51427676e-04, 6.00271043e-04, -7.14177877e-05,
          -2.76346429e-04, 1.71422886e-04, 8.03766423e-04,
          -1.17675576e-04, 1.86477380e-04, -2.82473629e-04 ]
      - [ 2.87986739e-04, -1.47992061e-04, 2.89161660e-04,
          -2.46528303e-04, 3.48280068e-04, -1.93992004e-04,
          -1.61370976e-04, 6.49402064e-05, 1.63538018e-04,
          2.51730817e-04, 4.86982281e-05, -1.72420099e-04 ]
      - [ 1.09161600e-03, 4.99411311e-04, 3.35495075e-04,
          -5.89682604e-04, 9.60421108e-04, -1.46418970e-04,
          -7.52299442e-04, 1.17588334e-03, -1.66647442e-04,
          1.25533354e-03, -8.85626010e-04, -7.47575192e-04 ]
      - [ 5.38446802e-05, -3.93483970e-05, 1.96258246e-04,
          -1.39932148e-04, 1.34029746e-04, -7.14742782e-05,
          -2.65171140e-04, 1.99447561e-04, 1.23786367e-05,
          3.42831981e-06, 9.10476738e-05, -9.22908512e-05 ]
      - [ -1.33678288e-04, 4.29257489e-04, 4.92148793e-05,
          -1.41433571e-04, 1.56979586e-04, 3.06617876e-04,
          -4.42037795e-04, 3.59427271e-04, -6.02453256e-05,
          2.41754067e-04, -3.77015560e-04, 3.23960383e-04 ]
      - [ 4.47694620e-04, -9.10444214e-05, -3.21006737e-05,
          -1.63319550e-04, 3.07782757e-04, -1.40959790e-04,
          -5.89640404e-04, 3.25783272e-04, 4.24850237e-04,
          4.89564671e-04, -1.90705206e-04, -3.68477253e-04 ]
      - [ 1.43217010e-04, -8.23419687e-05, 5.96780264e-05,
          -2.35043059e-04, 6.78011915e-04, 4.49030777e-04,
          -8.63023044e-04, 3.79122997e-04, 3.14913312e-04,
          3.33188829e-04, -4.13722359e-04, -2.06970086e-04 ]
      - [ 1.11413538e-03, 6.98753516e-04, 9.36010256e-05,
          -1.66396378e-03, -3.55767610e-04, -1.99374184e-03,
          -6.30222319e-04, 1.04224624e-03, -1.47753232e-03,
          -1.27148244e-03, 3.06892995e-04, 6.15165569e-04 ]
      - [ 1.63966673e-04, 1.64516008e-04, -8.58779240e-05,
          3.26812483e-06, -1.39316253e-04, -1.92430161e-04,
          -1.29177191e-04, 2.64627452e-04, -1.11612440e-04,
          -1.68161918e-04, -5.30080106e-05, 1.65736434e-04 ]
      - [ -3.21229949e-04, 1.04155531e-03, 2.50329089e-04,
          -3.83493316e-04, -3.12388554e-04, -1.09900360e-03,
          -1.77453028e-03, 2.74527189e-03, -3.88036860e-04,
          -1.41256745e-03, 3.49840848e-04, 2.44767783e-04 ]
      - [ 7.52945081e-04, 3.30034643e-04, -4.55489149e-04,
          -4.87483048e-05, -1.59422358e-04, -6.55872340e-04,
          -6.09520706e-04, 2.96372076e-04, -7.09395390e-04,
          -9.84645449e-04, -2.85344955e-04, -2.09085556e-04 ]
      - [ 3.25140136e-05, 2.35302257e-04, 2.14275147e-04, 7.62420095e-05,
          -7.16583963e-05, -3.98043230e-05, -6.86149579e-05,
          5.74212427e-05, 1.29814754e-04, -3.27787537e-04,
          7.02643883e-05, 2.58589353e-05 ]
      - [ -2.55301187e-04, 3.69218978e-05, -3.72181938e-04,
          5.07891382e-05, -7.18921074e-05, -2.28729041e-05,
          -4.72323445e-04, 4.31834400e-04, -7.99857720e-04,
          -1.03196180e-05, -8.21397407e-05, 3.70366673e-04 ]
      - [ -8.15501844e-05, 1.52610044e-03, -6.79592427e-04,
          -3.93446942e-04, -1.13699422e-03, -9.23672633e-04,
          -2.67912890e-03, 8.23341543e-04, -4.77639114e-04,
          -4.90435632e-05, 7.07511615e-04, 7.19096046e-04 ]
      - [ -2.11278442e-03, 1.50920684e-03, -1.18414266e-03,
          -2.90174910e-04, -1.04200223e-03, 1.58091585e-04,
          -1.75883283e-03, 1.92464306e-03, -2.41213571e-03,
          -7.31445558e-04, -8.08924495e-04, 1.11548405e-03 ]
      - [ 3.48146787e-05, 2.87127659e-05, -3.53105970e-05,
          5.20324866e-05, 3.67928369e-05, 1.97107129e-05, 9.49607711e-05,
          6.68273642e-05, 4.91135361e-05, -3.91760004e-05,
          -1.59466381e-05, 9.10835024e-06 ]
      - [ 1.68537706e-04, -1.10703649e-03, 1.32247340e-03,
          1.15527085e-03, -5.62831527e-04, -1.29840671e-04,
          1.21272511e-04, 3.24128981e-04, 1.12716889e-03,
          -2.46376847e-04, -8.31492478e-04, -3.76204087e-04 ]
      - [ 5.95674210e-05, -8.62190791e-05, 5.31900650e-06,
          3.35529658e-05, 7.16517607e-05, 1.02139411e-05, 8.62658198e-05,
          7.23238045e-05, -2.49833334e-07, -4.64083605e-05,
          -6.90229135e-05, 3.26488589e-05 ]
      - [ -5.35933592e-04, -2.79288361e-04, 1.15024787e-03,
          3.78999481e-04, -1.12078036e-04, 6.27585614e-05,
          2.76311883e-04, 3.14100587e-04, 2.18699657e-04,
          -6.80204685e-05, -3.50672926e-04, 1.44786987e-04 ]
      - [ -1.30416229e-04, 1.34116068e-04, 7.82977077e-05,
          -1.25801555e-04, 2.17786346e-05, -1.44387168e-05,
          -4.03248632e-05, -3.91732319e-05, -1.42309684e-04,
          2.12024461e-05, -7.23995254e-05, 1.57720297e-05 ]
      - [ -4.96344137e-06, -1.11714937e-04, -7.62184936e-05,
          8.69173236e-05, -3.69283080e-05, 5.26679150e-06,
          5.09807869e-05, -1.34709999e-05, 4.05833998e-05,
          -5.98765073e-05, -6.06480426e-05, -1.07752327e-04 ]
      - [ -1.39606316e-04, -5.66527888e-05, -2.92863915e-05,
          9.03100299e-05, 3.93462215e-05, -1.17304298e-04,
          9.17096768e-05, -2.46148611e-05, -8.80765401e-06,
          1.00902280e-05, -1.46124425e-04, -3.76544158e-05 ]
      - [ 8.14389263e-04, -5.77769708e-04, 1.70971302e-03,
          -1.71513399e-04, -1.95467408e-04, 4.38872637e-04,
          -7.64453842e-04, -8.40022753e-04, 1.58546807e-03,
          -8.83873145e-05, 1.90317063e-04, -5.42727532e-04 ]
      - [ 9.03900800e-05, -1.10971807e-04, -4.42970813e-05,
          -4.68509570e-05, 2.84012858e-05, -9.04257104e-06,
          2.40956633e-05, 6.47171983e-05, -1.15442337e-04,
          -5.89621523e-05, -4.10040375e-05, -1.28536616e-04 ]
      - [ -2.81995890e-04, -4.94480846e-05, 1.27164752e-03,
          4.06818202e-04, -7.83282332e-04, 4.34221060e-04,
          3.59937512e-05, 4.79786722e-05, 9.73611663e-04,
          -4.00282035e-04, -2.52346770e-04, -5.71518613e-04 ]
      - [ 1.04435705e-04, 3.76462158e-05, 1.34236761e-04,
          -1.06759135e-05, -1.24721540e-04, 4.97933397e-05,
          -4.77636931e-05, 1.19829776e-04, -1.05120635e-04,
          1.58422299e-05, 7.82932784e-06, -7.80157097e-06 ]
      - [ 3.21862608e-05, -2.34211257e-04, 8.40240409e-06,
          2.07593657e-05, -2.02111172e-04, 7.44712452e-05,
          -7.34805435e-05, -3.57376884e-05, 1.19995070e-06,
          1.00098245e-04, -3.28079841e-05, -1.37151437e-04 ]
      - [ -5.56446139e-05, -9.63917919e-05, 7.53470304e-05,
          1.21536963e-04, 8.68981733e-05, 9.93565409e-05, 9.26783105e-05,
          1.53546953e-05, -7.24651181e-05, -1.22637257e-05,
          -6.77737116e-05, 4.74191183e-05 ]
      - [ -5.34428691e-04, 1.47005823e-03, -1.68921996e-03,
          5.68571151e-04, -3.68182489e-04, -2.78379652e-04,
          -6.11435447e-04, 8.42118694e-04, -1.66553108e-03,
          -4.70252795e-04, 4.21004079e-04, 4.76673769e-04 ]
      - [ -3.43387364e-05, 7.29642779e-05, 4.04837810e-05,
          1.46579832e-05, -8.09828416e-05, 1.12759815e-04,
          -2.32881539e-05, 5.23717827e-05, -1.20059842e-04,
          -2.84721114e-06, 1.25799881e-04, 4.10154207e-05 ]
      - [ -3.75394797e-04, 7.53710163e-04, -6.01502659e-04,
          -1.65895719e-04, -1.68465631e-04, 3.20997060e-05,
          3.06232687e-05, 6.40592247e-04, -7.61853764e-04,
          -1.08016357e-04, -2.82725552e-04, 1.33034468e-04 ]
      - [ -3.61954619e-04, 6.24638284e-04, -7.50482664e-04,
          1.89219849e-04, -1.58541996e-04, 1.33470690e-04,
          -1.23513353e-04, 2.82513123e-04, -6.00786996e-04,
          -5.49653560e-05, 1.43701283e-04, 1.35088994e-04 ]
      - [ -8.62574016e-05, 1.41610406e-04, -1.40756107e-04,
          -3.83481711e-05, -1.87598198e-05, 9.45514239e-06,
          -4.40054100e-05, 1.19671728e-04, -2.85140210e-04,
          -1.99860024e-05, -4.99385351e-05, 3.48604626e-05 ]
      - [ -3.78852361e-04, -9.31901624e-04, 1.02926779e-03,
          1.41252473e-04, 1.61354488e-04, 7.91002880e-04,
          -1.10832705e-04, -7.57132191e-04, 3.89348017e-04,
          1.90459032e-04, -9.21183237e-05, -3.78747704e-04 ]
      - [ -4.38949792e-05, 3.15123383e-04, 3.33363860e-05,
          -2.26999153e-04, -9.26710345e-06, 2.80302684e-05,
          -1.25326857e-04, -8.44880706e-05, 1.42094796e-04,
          1.25421662e-04, -5.14339481e-05, 1.98516005e-04 ]
      - [ -2.02526571e-05, -7.74819346e-05, -2.46610016e-05,
          -1.77242982e-05, -7.87748577e-05, -5.52647252e-05,
          -2.53969247e-05, -5.28626661e-05, 9.85576116e-05,
          1.39706690e-05, -6.58868521e-06, -6.92584654e-05 ]
      - [ -1.20930192e-04, -1.23146659e-04, -5.74179539e-05,
          2.09591076e-06, 1.52305483e-05, 2.15824639e-06, 2.89827003e-05,
          -1.13368820e-04, 1.06038053e-04, 1.79277740e-05,
          8.40229586e-06, 1.61207063e-05 ]
      - [ -1.63274919e-04, 1.24086172e-03, -2.46678537e-04,
          -3.82927741e-04, -2.97765422e-04, 5.11746039e-05,
          -3.54121556e-04, 7.22972385e-04, -7.92500097e-04,
          1.83179101e-04, -1.16598007e-04, 7.21831457e-04 ]
      - [ 3.26023553e-04, 1.52290755e-04, -3.90153902e-04,
          -2.31499434e-04, -2.71268509e-04, -2.58218846e-04,
          2.58351179e-06, 8.73954705e-05, -1.15774994e-04,
          2.25428710e-04, 7.99269255e-05, -5.72632962e-05 ]
      - [ 1.64340541e-04, 3.40045481e-05, -3.19062499e-04,
          -1.09465545e-04, 5.63545509e-05, 1.59274001e-04,
          -5.88302428e-05, -6.36544282e-05, -2.77340936e-04,
          -4.25954349e-05, -3.57898389e-05, 2.70939781e-05 ]
      - [ 1.66961909e-04, -2.92104844e-04, -2.05590826e-04,
          4.97852561e-05, 2.59737226e-06, 4.15831564e-05, 2.02619649e-05,
          -8.47598712e-05, -4.82822325e-05, 3.97975964e-06,
          -4.92483960e-05, -8.24537274e-05 ]
      - [ -6.96353163e-05, -1.13844086e-04, -5.56738814e-05,
          -1.12547405e-05, -5.06560245e-05, 5.62159084e-06,
          6.75978808e-05, -4.86779300e-06, 6.50841275e-06,
          -1.82871172e-05, -1.13718015e-04, -1.15232950e-04 ]
      - [ -4.22850353e-05, -1.39416370e-04, 5.03691444e-05,
          -3.00572765e-06, 9.73193164e-05, 2.41337057e-05,
          -3.47819719e-06, -5.57733583e-05, -5.42770213e-05,
          -8.44672322e-05, -1.64230405e-05, 4.07033767e-05 ]
   uncompressed_sv_total: 686
   uncompressed_support_vectors:
      - [ 1.12740322e+04, 2.19010986e+03, 3.94145703e+03, 3.96837915e+03,
          5.14048193e+03, 1.27799775e+04, 6.53754248e+03, 1.43747861e+04,
          4.44737451e+03, 6.52123584e+03, 1.72016934e+04, 5.71282324e+03 ]
      - [ 1.35207168e+04, 7.88965137e+03, 4.58995422e+02, 3.99890991e+03,
          7.51057129e+03, 1.14313799e+04, 7.35429492e+03, 9.87796484e+03,
          7.13020752e+03, 5.43253174e+03, 1.05330303e+04, 9.63639355e+03 ]
      - [ 9.45981836e+03, 3.39252295e+03, 2.54016431e+03, 2.19604761e+03,
          3.84528882e+03, 8.76179883e+03, 5.43746484e+03, 5.25835645e+03,
          5.55281250e+03, 6.51986279e+03, 4.48100391e+03, 5.44867090e+03 ]
      - [ 1.75189199e+04, 4.58768115e+03, 2.85882227e+03, 5.66510986e+03,
          7.61438574e+03, 1.78703887e+04, 1.33436660e+04, 1.38599531e+04,
          7.31837793e+03, 1.41830898e+04, 1.47962852e+04, 8.63235254e+03 ]
      - [ 1.50461904e+04, 8.15203809e+03, 7.50638428e+02, 5.00756689e+03,
          4.72316455e+03, 1.27885771e+04, 5.64037256e+03, 9.54895410e+03,
          5.90533691e+03, 8.37653906e+03, 8.16486426e+03, 6.03163770e+03 ]
      - [ 1.31267520e+04, 4.62831348e+03, 1.33780481e+03, 3.78495825e+03,
          8.96157813e+03, 6.48033545e+03, 5.82492383e+03, 7.16777148e+03,
          8.20338379e+03, 5.89475439e+03, 8.51882422e+03, 5.75769531e+03 ]
      - [ 8.74547559e+03, 5.90072876e+02, 5.02313623e+03, 9.67578906e+03,
          6.63947119e+03, 6.20381738e+03, 4.66668994e+03, 1.43745850e+04,
          3.03520068e+03, 8.39474609e+03, 1.31988262e+04, 5.74301758e+03 ]
      - [ 7.23210547e+03, 4.22505713e+03, 1.01805762e+03, 2.94917871e+03,
          2.85266382e+03, 6.19995898e+03, 1.72989478e+03, 6.72356689e+03,
          3.17643970e+03, 5.38532568e+03, 8.25229688e+03, 8.09251709e+02 ]
      - [ 1.36437666e+04, 1.06391465e+04, 4.00510895e+02, 2.75602222e+03,
          6.04663281e+03, 1.47497754e+04, 7.51513428e+03, 1.01497871e+04,
          4.68827979e+03, 8.14834619e+03, 1.21708623e+04, 4.53583936e+03 ]
      - [ 1.82356816e+04, 8.08739893e+03, 0., 5.60264941e+03,
          3.52371021e+03, 1.68595859e+04, 7.42510107e+03, 1.56056631e+04,
          7.78934277e+03, 1.17614092e+04, 1.16647168e+04, 9.34929492e+03 ]
      - [ 1.92301992e+04, 2.61901807e+03, 0., 6.99111768e+03,
          6.67885254e+03, 1.78537793e+04, 4.61211572e+03, 1.81233496e+04,
          6.60274170e+03, 1.02014717e+04, 1.16777666e+04, 1.28370293e+04 ]
      - [ 1.66175586e+04, 3.30026337e+02, 10., 4.88887500e+03,
          2.21508325e+03, 1.43696191e+04, 2.05294580e+03, 1.58045732e+04,
          1.49917102e+03, 2.84104639e+03, 1.65633906e+04, 5.04431592e+03 ]
      - [ 1.67712246e+04, 7.10049219e+03, 3.00612579e+02, 3.92658252e+03,
          6.07542139e+03, 1.62482451e+04, 1.00561719e+04, 1.05238721e+04,
          7.20459863e+03, 8.35557617e+03, 1.17461455e+04, 7.98603174e+03 ]
      - [ 1.13017822e+04, 4.39829498e+02, 3.95534790e+03, 2.69059766e+03,
          2.50693896e+03, 1.24869150e+04, 2.02235120e+03, 1.33242080e+04,
          9.32915833e+02, 2.43125439e+03, 1.35242383e+04, 3.38607983e+03 ]
      - [ 1.86479043e+04, 8.50410742e+03, 1.68812683e+03, 8.77093848e+03,
          7.08869482e+03, 1.59127480e+04, 7.27398340e+03, 1.23015771e+04,
          1.07266484e+04, 8.71711328e+03, 1.12356982e+04, 1.26009648e+04 ]
      - [ 1.22342510e+04, 5.00785742e+03, 7.45134717e+03, 1.06669170e+04,
          3.33312158e+03, 1.29259863e+04, 6.60129883e+03, 1.33945352e+04,
          8.08463672e+03, 8.16399170e+03, 1.20883252e+04, 9.39615430e+03 ]
      - [ 1.81281445e+04, 3.35523633e+03, 2.20294653e+03, 8.10093604e+03,
          9.63566016e+03, 1.42987559e+04, 8.56514648e+03, 1.08194443e+04,
          1.07287920e+04, 1.26718105e+04, 1.46061348e+04, 5.71866016e+03 ]
      - [ 1.34357227e+04, 3.75388184e+03, 4.91028076e+03, 5.11729199e+03,
          4.68467871e+03, 1.45189033e+04, 6.85224902e+03, 8.39616699e+03,
          8.65768555e+03, 7.93503906e+03, 6.08359961e+03, 1.08064121e+04 ]
      - [ 1.87725918e+04, 8.60693555e+03, 1.06301453e+02, 7.09969922e+03,
          8.32888379e+03, 1.63272500e+04, 8.94709180e+03, 1.21340283e+04,
          7.47123096e+03, 7.67006982e+03, 1.35795381e+04, 9.40088965e+03 ]
      - [ 1.96110234e+04, 9.26505176e+03, 1.56683374e+03, 3.38465137e+03,
          8.07879590e+03, 1.94253926e+04, 1.25278066e+04, 1.05785713e+04,
          7.58528564e+03, 1.14446074e+04, 1.37252002e+04, 6.00359912e+03 ]
      - [ 1.17310986e+04, 1.02900842e+03, 2.21531036e+02, 5.37047803e+03,
          5.62463721e+03, 9.23701855e+03, 4.16052295e+03, 1.43807500e+04,
          2.03466602e+03, 5.25347070e+03, 1.35304883e+04, 9.27493164e+03 ]
      - [ 1.77001758e+04, 3.66082007e+03, 5.74741553e+03, 8.65870605e+03,
          6.46000684e+03, 1.61362764e+04, 1.12054941e+04, 6.40530420e+03,
          9.64284180e+03, 1.05817217e+04, 9.87293262e+03, 1.14017061e+04 ]
      - [ 1.63793848e+04, 5.56578796e+02, 2.91846216e+03, 8.86754004e+03,
          4.35235205e+03, 2.01002441e+04, 6.30867041e+03, 1.37831455e+04,
          7.96476953e+03, 1.32294111e+04, 1.23302188e+04, 9.62465430e+03 ]
      - [ 1.52698535e+04, 2.64533398e+03, 1.58243921e+03, 4.74057861e+03,
          2.74507080e+03, 1.36973896e+04, 6.14670850e+03, 1.63440313e+04,
          4.76281787e+03, 9.16628516e+03, 1.85078828e+04, 4.63315723e+03 ]
      - [ 1.72376621e+04, 7.86785156e+03, 2.35947021e+03, 4.82961621e+03,
          6.55740674e+03, 1.76716445e+04, 8.02637109e+03, 9.19754590e+03,
          1.14713555e+04, 1.08420244e+04, 8.43724121e+03, 1.13723389e+04 ]
      - [ 1.81492031e+04, 6.09420020e+03, 3.50884033e+03, 5.98157129e+03,
          4.90002588e+03, 1.82800625e+04, 1.09351211e+04, 8.75271875e+03,
          9.63849414e+03, 1.11920605e+04, 9.97416211e+03, 8.86798047e+03 ]
      - [ 1.94731992e+04, 3.01271191e+03, 1.46901331e+03, 2.04780676e+03,
          3.52975000e+03, 1.75827988e+04, 5.15774951e+03, 1.45228398e+04,
          5.14877979e+03, 3.46167896e+03, 1.56073262e+04, 8.49518066e+03 ]
      - [ 1.48987656e+04, 2.35961548e+03, 4.99953467e+03, 6.34403320e+03,
          4.73619189e+03, 1.48618115e+04, 1.00584609e+04, 6.06890625e+03,
          1.01635518e+04, 1.13858447e+04, 8.39614063e+03, 9.51117090e+03 ]
      - [ 1.34081475e+04, 8.53690820e+03, 3.80525970e+01, 6.56690039e+03,
          5.21112646e+03, 1.07702910e+04, 2.11111475e+03, 1.04453633e+04,
          4.90385449e+03, 7.66951074e+03, 7.64847900e+03, 6.07374023e+03 ]
      - [ 1.05693818e+04, 0., 9.54992828e+01, 4.32396729e+03, 0.,
          8.98999219e+03, 1.80023621e+03, 1.16031582e+04, 2.73806488e+02,
          0., 1.33645801e+04, 3.57781104e+03 ]
      - [ 1.25552002e+04, 0., 6.44968896e+03, 7.96511475e+03,
          9.40101318e+02, 9.73485059e+03, 1.93662109e+03, 1.27484355e+04,
          1.72314502e+03, 4.18474268e+03, 7.33800781e+03, 9.78308203e+03 ]
      - [ 6.97303418e+03, 0., 3.72020508e+03, 4.90989404e+03, 0.,
          8.66251660e+03, 2.58442090e+03, 8.72128027e+03, 1.61548752e+02,
          5.77508850e+02, 1.36429463e+04, 1.06358459e+03 ]
      - [ 9.73627051e+03, 0., 5.98926514e+03, 9.64677246e+03, 0.,
          7.00786670e+03, 3.37125391e+03, 1.31693662e+04, 0.,
          4.33227637e+03, 1.21084678e+04, 4.56918066e+03 ]
      - [ 1.02025010e+04, 0., 1.57686841e+03, 0., 0., 1.34418311e+04,
          3.40729053e+03, 1.29284990e+04, 0., 1.70880070e+01,
          1.42797510e+04, 3.23277515e+03 ]
      - [ 7.82677930e+03, 0., 5.09043555e+03, 8.90349121e+03, 0.,
          6.02920557e+03, 2.88131348e+03, 1.19728486e+04, 4.77163177e+02,
          9.92132690e+02, 1.51581387e+04, 2.29523706e+03 ]
      - [ 1.22793779e+04, 7.11493359e+03, 1.39359924e+03, 8.54407910e+03,
          9.68582214e+02, 8.18346436e+03, 7.94648438e+03, 1.36766143e+04,
          2.58972046e+03, 5.35667773e+03, 1.03073721e+04, 7.02892041e+03 ]
      - [ 6.23048926e+03, 0., 1.15564624e+03, 0., 0., 9.00848242e+03,
          2.59119678e+03, 8.89446777e+03, 0., 4.13969147e+02,
          9.94320313e+03, 1.84706104e+03 ]
      - [ 3.26110913e+03, 0., 6.94109766e+03, 5.93807471e+03, 0.,
          6.61682568e+03, 0., 9.20566211e+03, 0., 0., 1.02967324e+04,
          1.12160599e+02 ]
      - [ 1.41872529e+04, 0., 5.43155579e+02, 8.11670020e+03, 0.,
          6.69034131e+03, 1.62609326e+03, 1.37735303e+04, 0., 0.,
          1.39309434e+04, 1.63562781e+03 ]
      - [ 3.73849756e+03, 0., 8.89908203e+03, 8.55700391e+03, 0.,
          5.14334668e+03, 1.73540601e+03, 1.18841865e+04, 2.12249939e+02,
          3.17682251e+02, 1.30456914e+04, 2.58829688e+03 ]
      - [ 8.98944238e+03, 0., 5.10826904e+03, 5.64068457e+03, 0.,
          1.11906719e+04, 2.68384546e+03, 1.22045977e+04, 0.,
          2.77910065e+02, 1.21096748e+04, 4.26260645e+03 ]
      - [ 5.52933398e+03, 0., 1.14348218e+03, 1.83470581e+03, 0.,
          4.84918311e+03, 2.31352563e+03, 7.65612793e+03, 0.,
          1.55272998e+03, 8.96762891e+03, 1.53666541e+03 ]
      - [ 3.45194409e+03, 1.46570847e+02, 1.76084875e+03, 5.58916455e+03,
          0., 2.00403186e+03, 2.95143896e+03, 8.16669531e+03,
          1.04792554e+03, 1.58796643e+03, 9.37115527e+03, 1.81297266e+03 ]
      - [ 1.44780884e+03, 7.07886047e+02, 4.45105762e+03, 4.96744922e+03,
          0., 2.83657202e+03, 4.33610413e+02, 5.99791650e+03,
          6.56218750e+02, 1.48048035e+03, 7.56422266e+03, 0. ]
      - [ 9.04588184e+03, 0., 3.09428497e+02, 4.51066895e+03,
          3.23730103e+03, 8.14084473e+03, 4.54928564e+03, 1.06045088e+04,
          2.67570557e+02, 8.24432983e+02, 1.12220313e+04, 8.38253711e+03 ]
      - [ 9.64900586e+03, 0., 5.20843262e+03, 4.72110840e+03, 0.,
          1.11762822e+04, 6.16202881e+02, 1.35042959e+04, 0., 0.,
          1.44477559e+04, 8.48654236e+02 ]
      - [ 4.91130127e+03, 0., 5.57725684e+03, 3.09585864e+03, 0.,
          9.08461523e+03, 1.80840186e+03, 1.00920859e+04, 3.54730560e+02,
          6.72309418e+01, 1.21904961e+04, 2.06829468e+03 ]
      - [ 1.39490166e+04, 0., 2.80713367e+01, 3.77939526e+03, 0.,
          1.16329541e+04, 1.12263159e+03, 1.29923164e+04, 0., 0.,
          1.44588496e+04, 1.95475586e+03 ]
      - [ 1.19635635e+04, 0., 8.50812073e+02, 3.62174878e+03, 0.,
          1.16284697e+04, 2.25691870e+03, 1.30204004e+04, 0., 0.,
          1.57399063e+04, 2.67646069e+03 ]
      - [ 1.27088848e+04, 0., 1.32676831e+03, 2.00935071e+03, 0.,
          1.32427510e+04, 2.11834961e+03, 1.33425254e+04, 1.07703295e+01,
          0., 1.54721689e+04, 2.55256421e+03 ]
      - [ 8.12346631e+03, 0., 5.42503760e+03, 5.18066162e+03, 0.,
          1.07664209e+04, 0., 1.16400996e+04, 0., 0., 1.49861494e+04, 0. ]
      - [ 6.81381494e+03, 0., 4.49403223e+03, 8.30270703e+03, 0.,
          3.92815942e+03, 2.37252954e+03, 7.73727197e+03, 8.35057495e+02,
          2.02543823e+02, 8.70650195e+03, 2.20020947e+03 ]
      - [ 6.76745117e+03, 0., 1.05410088e+04, 1.04710156e+04, 0.,
          7.43782324e+03, 2.09849927e+03, 1.40013740e+04, 3.12081757e+02,
          2.39137512e+02, 1.55056777e+04, 8.91891113e+02 ]
      - [ 8.72950195e+03, 0., 5.18652115e+01, 0., 0., 1.14933760e+04,
          3.00074658e+03, 9.76317090e+03, 3.19452667e+02, 0.,
          1.25315654e+04, 2.24789771e+03 ]
      - [ 9.19234668e+03, 0., 6.06239551e+03, 4.62807373e+03, 0.,
          1.17343994e+04, 2.63942114e+03, 1.24944736e+04, 4.24499702e+01,
          4.91934967e+01, 1.53968369e+04, 2.06506055e+03 ]
      - [ 1.15161533e+04, 0., 0., 0., 0., 1.35222354e+04, 2.84544727e+03,
          1.11100703e+04, 0., 0., 1.26277266e+04, 1.98212683e+03 ]
      - [ 2.04041150e+03, 0., 5.23325635e+03, 4.37048682e+03, 0.,
          4.14360547e+03, 1.51593848e+03, 7.53891699e+03, 5.37975037e+02,
          1.82217941e+02, 8.54253125e+03, 7.52443726e+02 ]
      - [ 1.00500234e+04, 0., 0., 3.20038965e+03, 0., 7.27896045e+03,
          4.89178076e+03, 1.18500850e+04, 0., 0., 1.27082803e+04,
          4.71361621e+03 ]
      - [ 8.40988379e+03, 0., 4.70956459e+01, 4.60306543e+03,
          5.84563110e+02, 7.42686963e+03, 6.35202881e+03, 1.15494316e+04,
          0., 0., 1.18107139e+04, 9.57014844e+03 ]
      - [ 3.78656128e+03, 0., 7.77432764e+03, 8.11542578e+03, 0.,
          4.19926270e+03, 1.13073608e+03, 1.15665889e+04, 1.23982837e+03,
          1.19095288e+03, 1.36333672e+04, 1.18758276e+03 ]
      - [ 1.23629346e+04, 0., 0., 1.59972852e+03, 0., 1.10238789e+04,
          1.99664441e+03, 1.18445088e+04, 0., 7.65506363e+01,
          1.18432666e+04, 2.35295605e+03 ]
      - [ 9.92316211e+03, 0., 3.51283379e+01, 2.94887207e+03, 0.,
          9.01766309e+03, 2.42334058e+03, 9.83838281e+03, 0.,
          2.72694244e+02, 1.23529170e+04, 1.90069604e+03 ]
      - [ 7.32387305e+03, 0., 6.76666565e+02, 6.08228271e+02, 0.,
          8.85117773e+03, 1.26126160e+03, 7.87190039e+03, 0., 0.,
          9.11981445e+03, 1.14422559e+03 ]
      - [ 1.14839775e+04, 2.43024072e+03, 6.59610645e+03, 9.93103418e+03,
          2.45112598e+03, 1.09522666e+04, 6.79241357e+03, 9.22451758e+03,
          3.20175000e+03, 5.55797998e+03, 9.54229297e+03, 1.01800254e+04 ]
      - [ 1.41932559e+04, 0., 1.05334727e+04, 1.14552139e+04,
          4.98146533e+03, 1.21661807e+04, 1.19593535e+04, 1.35882354e+04,
          4.65164941e+03, 1.20212490e+04, 7.88988672e+03, 1.59139248e+04 ]
      - [ 1.40273672e+04, 0., 1.30194463e+04, 1.16540010e+04,
          1.46420447e+03, 9.16304102e+03, 1.18152959e+04, 1.25281826e+04,
          8.13316406e+03, 1.07600801e+04, 1.47308506e+04, 8.52171582e+03 ]
      - [ 9.99218457e+03, 0., 4.00248169e+03, 7.02730225e+03,
          1.26186926e+03, 1.19904473e+04, 4.89416943e+03, 8.91904688e+03,
          1.98182239e+03, 1.14090693e+04, 1.20810132e+03, 1.25552510e+04 ]
      - [ 1.69665020e+04, 0., 1.16979541e+04, 1.25549092e+04,
          4.46943213e+03, 1.28116963e+04, 1.00482266e+04, 1.36612686e+04,
          2.66894824e+03, 1.37782852e+04, 6.46965771e+03, 1.43174932e+04 ]
      - [ 1.48317354e+04, 1.41421356e+01, 1.32966055e+04, 1.28440732e+04,
          2.92233002e+02, 1.08654688e+04, 1.07734648e+04, 9.46093750e+03,
          7.15529736e+03, 7.14929980e+03, 1.42955010e+04, 7.99568945e+03 ]
      - [ 1.19468447e+04, 3.05484253e+02, 9.52533496e+03, 1.08382305e+04,
          1.48268347e+03, 1.03345908e+04, 1.25789502e+04, 1.05034150e+04,
          4.09351489e+03, 1.01896436e+04, 6.05998779e+03, 1.24331982e+04 ]
      - [ 1.16993623e+04, 3.45253525e+01, 8.26422070e+03, 1.17503799e+04,
          1.59757690e+03, 1.16107021e+04, 1.05054639e+04, 1.15087168e+04,
          2.90008545e+03, 1.28088408e+04, 5.15268408e+03, 1.75423008e+04 ]
      - [ 1.01397559e+04, 2.67799341e+03, 4.40681006e+03, 6.48259814e+03,
          3.53404102e+03, 1.32068242e+04, 1.46785461e+03, 1.12475518e+04,
          7.72734717e+03, 6.33152344e+03, 9.76206152e+03, 5.73258447e+03 ]
      - [ 3.20097437e+03, 0., 5.95770264e+03, 7.08104443e+03, 0.,
          5.51883154e+03, 1.57105591e+03, 1.23171162e+04, 3.05687769e+03,
          3.40520459e+03, 1.00290918e+04, 4.38938086e+03 ]
      - [ 1.80937500e+04, 6.32830139e+02, 8.75482715e+03, 1.12595439e+04,
          5.43434326e+03, 1.24099824e+04, 6.63053809e+03, 1.58336172e+04,
          2.79564478e+03, 1.41245449e+04, 3.21507300e+03, 1.52253350e+04 ]
      - [ 1.15531758e+04, 6.14003296e+01, 1.18799004e+04, 1.49921191e+04,
          2.56467993e+03, 1.31029619e+04, 1.51552617e+04, 1.23678809e+04,
          6.90900244e+03, 1.50186172e+04, 1.03259434e+04, 1.42884658e+04 ]
      - [ 1.06031035e+04, 2.59423999e+03, 2.74385132e+03, 7.46835938e+03,
          4.99137598e+03, 8.57547559e+03, 4.45488037e+03, 1.14099805e+04,
          1.91165918e+03, 7.90895459e+03, 4.32133008e+03, 8.54339746e+03 ]
      - [ 1.29004063e+04, 1.65295227e+02, 1.03389727e+04, 1.46602754e+04,
          2.32301440e+03, 1.89422207e+04, 4.97270459e+03, 1.60498213e+04,
          6.75619873e+03, 3.42238306e+03, 1.44681191e+04, 1.04640039e+04 ]
      - [ 1.07294971e+04, 0., 9.23871875e+03, 1.23323516e+04,
          4.35508881e+02, 1.29608955e+04, 1.26137793e+04, 1.03696748e+04,
          6.24129590e+03, 2.67273511e+03, 1.35883096e+04, 1.33819219e+04 ]
      - [ 9.96843164e+03, 1.55563488e+01, 6.52538916e+03, 1.09810391e+04,
          6.24070850e+03, 4.00560791e+03, 5.33306006e+03, 9.13871289e+03,
          1.57243079e+03, 5.32649414e+03, 7.74089551e+03, 1.09130322e+04 ]
      - [ 1.65708906e+04, 1.99012781e+03, 7.71404443e+03, 1.00988828e+04,
          1.96255688e+03, 1.43454775e+04, 6.00652246e+03, 1.56984912e+04,
          3.75026978e+03, 3.01387646e+03, 1.45652207e+04, 1.09883291e+04 ]
      - [ 7.51393115e+03, 3.98905713e+03, 7.02670020e+03, 1.16606914e+04,
          5.74247510e+03, 4.55969336e+03, 8.69466309e+03, 1.11762783e+04,
          3.32521460e+03, 6.00228223e+03, 1.47283105e+04, 6.71077344e+03 ]
      - [ 1.34004580e+04, 0., 3.81911987e+03, 9.22705762e+03,
          5.14290820e+03, 1.56764355e+04, 4.77252832e+03, 1.46237588e+04,
          2.24383105e+03, 1.91145801e+03, 1.67215039e+04, 1.19533018e+04 ]
      - [ 1.12478877e+04, 1.38909644e+03, 7.36369971e+03, 4.95358203e+03,
          4.03749292e+03, 1.44845693e+04, 3.65257813e+03, 1.41480811e+04,
          9.25993848e+03, 8.25117676e+03, 1.00478906e+04, 8.79921582e+03 ]
      - [ 5.47290381e+03, 0., 5.77713086e+03, 5.62424414e+03,
          8.33505615e+02, 7.11980957e+03, 2.45430444e+03, 9.85591895e+03,
          3.18204297e+03, 7.06312256e+02, 1.18157832e+04, 3.83450439e+03 ]
      - [ 6.92018994e+03, 1.73387256e+03, 3.08098413e+03, 9.53231836e+03,
          1.21844604e+03, 5.67602979e+03, 3.93269141e+03, 7.46158838e+03,
          1.21423584e+03, 4.06016626e+03, 6.81976367e+03, 6.05784229e+03 ]
      - [ 8.41984570e+03, 1.40025818e+03, 3.55824976e+03, 7.33258350e+03,
          1.51262451e+03, 9.79931836e+03, 4.92526318e+03, 5.50281006e+03,
          2.34706812e+03, 6.69532471e+03, 4.14489697e+03, 9.90554004e+03 ]
      - [ 1.00348174e+04, 5.81476318e+03, 4.09125659e+03, 9.37286719e+03,
          1.15952747e+03, 1.18518975e+04, 6.66801465e+03, 9.25640918e+03,
          7.67393799e+02, 2.22471631e+03, 1.08608857e+04, 6.38733887e+03 ]
      - [ 4.82782031e+03, 2.85444000e+02, 4.62343066e+03, 8.31471289e+03,
          1.51439233e+03, 9.25822461e+03, 3.62119653e+03, 7.69743555e+03,
          4.59645996e+03, 7.66351172e+03, 5.61191016e+03, 7.68209814e+03 ]
      - [ 1.37907598e+04, 4.30116272e+01, 1.14492559e+04, 1.03041201e+04,
          4.57000928e+03, 1.00724580e+04, 7.93525293e+03, 1.24072803e+04,
          4.19793701e+02, 2.17888818e+03, 1.63189717e+04, 2.31667114e+03 ]
      - [ 1.67425918e+04, 1.49742932e+03, 6.51265674e+03, 9.45036035e+03,
          4.39806396e+03, 1.62777178e+04, 1.07775693e+04, 1.14233086e+04,
          6.17710400e+03, 2.39094556e+03, 1.41871846e+04, 1.31989922e+04 ]
      - [ 1.18621709e+04, 2.17876074e+03, 4.35245654e+03, 9.51654688e+03,
          1.29953918e+03, 1.20890156e+04, 9.31748535e+03, 6.21904053e+03,
          4.24168994e+03, 8.68119043e+03, 4.60988867e+03, 1.19159121e+04 ]
      - [ 9.77980078e+03, 1.41421354e+00, 6.00014502e+03, 7.99532910e+03,
          5.63969043e+03, 8.46111523e+03, 8.21279102e+03, 8.61885742e+03,
          4.65766113e+03, 6.78871143e+03, 5.17149170e+03, 6.40911084e+03 ]
      - [ 5.66186914e+03, 3.45891528e+03, 3.74160571e+03, 5.65575146e+03,
          1.10368811e+03, 7.82486816e+03, 6.13156543e+03, 6.86510840e+03,
          2.11126685e+03, 3.61587939e+03, 6.51097900e+03, 5.77987988e+03 ]
      - [ 8.82297070e+03, 5.08674707e+03, 4.14051123e+03, 1.02542559e+04,
          0., 9.17793652e+03, 9.47570313e+03, 1.16739990e+04, 0.,
          1.37137451e+03, 1.36069795e+04, 5.76361328e+03 ]
      - [ 1.70131875e+04, 0., 6.15610889e+03, 8.40733984e+03,
          1.65762146e+02, 1.63632188e+04, 4.80920654e+03, 1.63842344e+04,
          2.53054834e+03, 7.26092529e+03, 1.15005869e+04, 1.43221992e+04 ]
      - [ 7.69746875e+03, 1.24490308e+03, 4.16241406e+03, 1.15423691e+04,
          3.07391022e+02, 1.08929990e+04, 6.14009668e+03, 1.23500068e+04,
          2.46764795e+03, 1.45027026e+03, 1.57106680e+04, 8.40390723e+03 ]
      - [ 1.68130176e+04, 8.34505844e+01, 6.46478467e+03, 1.20393076e+04,
          4.06621484e+03, 1.09395762e+04, 6.36912305e+03, 1.55666982e+04,
          1.87136401e+03, 5.13751123e+03, 1.26653662e+04, 1.27261641e+04 ]
      - [ 1.41222070e+04, 0., 4.28619678e+03, 6.25197314e+03,
          2.58819214e+03, 1.38585371e+04, 6.66936768e+03, 1.36119951e+04,
          6.84292725e+02, 7.75243945e+03, 1.19209795e+04, 1.07297686e+04 ]
      - [ 1.27066953e+04, 0., 6.50909424e+03, 1.09944111e+04,
          2.54558449e+01, 1.61274434e+04, 8.45101367e+03, 1.33434736e+04,
          2.08477222e+03, 8.87877539e+03, 1.27301631e+04, 1.26655342e+04 ]
      - [ 1.54741963e+04, 0., 7.25340088e+03, 9.35352148e+03,
          3.99427399e+02, 1.54154922e+04, 8.59170703e+03, 1.43084668e+04,
          1.69097510e+03, 7.79595605e+03, 1.31477969e+04, 1.33724414e+04 ]
      - [ 1.55721934e+04, 1.25820105e+03, 7.02499512e+03, 1.04372051e+04,
          3.98398389e+03, 1.29596250e+04, 8.44607324e+03, 1.51005811e+04,
          1.70420618e+03, 1.42668359e+04, 5.91160254e+03, 1.49389131e+04 ]
      - [ 7.82158447e+03, 3.12791089e+03, 5.27807568e+03, 1.26175684e+04,
          4.12774689e+02, 1.15512422e+04, 5.14811523e+03, 1.06851006e+04,
          6.02608984e+03, 1.11129297e+04, 7.79853906e+03, 1.31379541e+04 ]
      - [ 7.38546191e+03, 0., 4.77552344e+03, 9.66620801e+03,
          1.49879541e+03, 5.86858301e+03, 4.06268481e+03, 1.07102139e+04,
          1.77839661e+03, 4.81579346e+03, 1.02140010e+04, 4.71976270e+03 ]
      - [ 1.51589170e+04, 2.85702930e+03, 9.67036621e+03, 1.47505879e+04,
          5.85438652e+01, 1.42184727e+04, 9.61515527e+03, 1.51562451e+04,
          4.20897363e+03, 8.17300391e+03, 1.34934873e+04, 1.24556572e+04 ]
      - [ 8.11077881e+03, 4.72343750e+02, 4.27728955e+03, 5.90500830e+03,
          4.68956201e+03, 7.91219043e+03, 5.13129150e+03, 7.86240234e+03,
          5.09189404e+03, 6.24788477e+03, 3.52314600e+03, 6.76215918e+03 ]
      - [ 1.23899883e+04, 0., 1.87909009e+03, 5.98922510e+03,
          9.44019104e+02, 1.40000723e+04, 6.50871777e+03, 1.31332969e+04,
          1.70394934e+03, 6.16911133e+03, 8.97746777e+03, 1.35572598e+04 ]
      - [ 1.11956016e+04, 0., 5.35427100e+03, 1.08396279e+04,
          5.49973083e+02, 1.04058086e+04, 9.59287207e+03, 1.12571982e+04,
          4.69623047e+03, 9.64555847e+02, 1.50997324e+04, 1.14399385e+04 ]
      - [ 1.27338896e+04, 0., 5.63835693e+03, 8.25525293e+03,
          2.38143188e+03, 1.12863682e+04, 4.97559619e+03, 1.61566328e+04,
          4.10356787e+03, 3.29979102e+03, 1.41217588e+04, 1.07959375e+04 ]
      - [ 1.36127500e+04, 6.72011871e+01, 8.31914941e+03, 1.29056055e+04,
          5.03205615e+03, 8.64992480e+03, 1.06441992e+04, 1.61847578e+04,
          3.69281006e+03, 6.40102930e+03, 1.26655264e+04, 1.44924355e+04 ]
      - [ 8.33298340e+03, 5.65685415e+00, 5.78734033e+03, 6.90941406e+03,
          2.45591357e+03, 9.67896680e+03, 1.41486841e+03, 1.24195635e+04,
          7.86537646e+03, 5.62671973e+03, 1.31873057e+04, 4.76645459e+03 ]
      - [ 1.41137930e+04, 0., 6.87913330e+03, 7.16560352e+03,
          7.85812622e+02, 1.46474316e+04, 6.14417773e+03, 8.76529199e+03,
          1.67556384e+03, 1.73286694e+03, 1.24082656e+04, 9.11944824e+03 ]
      - [ 3.38764160e+03, 62., 7.31451123e+03, 6.28438721e+03,
          9.50360779e+02, 7.76625488e+03, 1.75675928e+03, 1.27933154e+04,
          1.51467285e+03, 2.59588379e+03, 9.62797852e+03, 6.92024512e+03 ]
      - [ 1.51402305e+04, 0., 9.62140234e+03, 1.03475918e+04,
          2.50284937e+03, 1.30602285e+04, 1.01339326e+04, 1.55135068e+04,
          2.57833496e+03, 1.18014727e+04, 1.16038242e+04, 1.31852891e+04 ]
      - [ 1.78783906e+04, 0., 7.52497461e+03, 1.16915723e+04,
          6.37739990e+02, 1.23510127e+04, 8.32450293e+03, 1.66815273e+04,
          2.34060864e+03, 9.98736035e+03, 1.14626191e+04, 1.27771826e+04 ]
      - [ 1.37234160e+04, 198., 9.43872559e+03, 1.18715029e+04,
          2.88970856e+02, 1.55976992e+04, 8.84194153e+02, 1.89803281e+04,
          6.96264893e+02, 9.97220410e+03, 9.40539453e+03, 1.34148359e+04 ]
      - [ 1.37592832e+04, 7.60800879e+03, 4.87269775e+03, 1.25888330e+04,
          5.39766016e+03, 1.14833105e+04, 7.20079834e+03, 1.26254336e+04,
          4.55942529e+03, 7.76510303e+03, 8.08739502e+03, 1.13387451e+04 ]
      - [ 1.17247881e+04, 3.24484961e+03, 8.51712988e+03, 1.43895830e+04,
          2.39503931e+03, 1.30150566e+04, 8.22668945e+03, 1.17227344e+04,
          7.18055273e+03, 5.63970117e+03, 1.74543066e+04, 9.25664941e+03 ]
      - [ 1.02476787e+04, 1.22149280e+03, 3.01101611e+03, 4.91862744e+03,
          7.05816406e+03, 1.10669883e+04, 4.32236621e+03, 1.11959990e+04,
          1.53442627e+03, 8.38574707e+03, 4.61362305e+03, 6.90127637e+03 ]
      - [ 1.07890244e+04, 3.18215063e+03, 7.20649121e+03, 1.38969336e+04,
          3.04785986e+03, 1.13516387e+04, 5.25510742e+03, 1.23733789e+04,
          7.00189795e+03, 7.70967139e+03, 1.49713594e+04, 7.28175342e+03 ]
      - [ 1.24452070e+04, 4.61607520e+03, 7.14839844e+03, 1.49565352e+04,
          5.91481641e+03, 1.33395693e+04, 1.22303613e+04, 1.27932236e+04,
          4.39550928e+03, 4.11833301e+03, 1.61723506e+04, 1.11956094e+04 ]
      - [ 2.02194102e+04, 0., 8.88622656e+03, 6.73106250e+03,
          2.41237866e+03, 1.85363984e+04, 1.22529209e+04, 1.10524912e+04,
          6.17857813e+03, 1.54086377e+03, 1.56612051e+04, 1.11255020e+04 ]
      - [ 1.68034238e+04, 8.66625732e+02, 7.33721631e+03, 6.95455176e+03,
          3.07463745e+03, 1.81060176e+04, 8.63505859e+03, 1.12999238e+04,
          6.23142578e+03, 6.77239746e+03, 1.17456943e+04, 1.04541924e+04 ]
      - [ 8.97913477e+03, 6.24672394e+01, 8.98080859e+03, 9.13491895e+03,
          3.62824048e+03, 6.92671143e+03, 1.02021191e+04, 9.30349902e+03,
          5.27463574e+03, 7.81575586e+03, 1.18232266e+04, 4.44118262e+03 ]
      - [ 7.41024512e+03, 6.22095947e+02, 3.99677368e+03, 1.17898867e+04,
          5.03633691e+03, 6.44171826e+03, 8.01536230e+03, 1.00067891e+04,
          2.23199072e+03, 3.26458252e+03, 1.06888594e+04, 1.04759688e+04 ]
      - [ 1.61215225e+04, 3.06284302e+02, 1.21981211e+04, 1.45149990e+04,
          3.24729321e+03, 1.68761348e+04, 1.25943135e+04, 1.38992559e+04,
          6.88646777e+03, 4.63714990e+03, 1.66704180e+04, 1.15418477e+04 ]
      - [ 6.53608936e+03, 1.27279224e+01, 7.01925342e+03, 7.47754199e+03,
          1.57826099e+03, 4.84926221e+03, 6.79950684e+03, 7.55750146e+03,
          3.77770337e+03, 4.80909424e+03, 1.21106084e+04, 3.40198340e+03 ]
      - [ 1.43133779e+04, 1.99734277e+03, 6.04630908e+03, 1.06715908e+04,
          5.69005225e+03, 1.45433867e+04, 2.93804028e+03, 1.54366563e+04,
          1.09690234e+03, 1.43569980e+04, 4.97325977e+03, 1.48471875e+04 ]
      - [ 8.49277930e+03, 2.89656177e+03, 4.95212354e+03, 1.07763545e+04,
          1.91597949e+03, 1.06077871e+04, 3.81683472e+03, 1.01391133e+04,
          7.13623145e+03, 7.13876025e+03, 1.33309932e+04, 4.28518115e+03 ]
      - [ 7.86049951e+03, 2.64184717e+03, 4.64733984e+03, 8.17808594e+03,
          1.56477612e+03, 7.69784766e+03, 3.85327832e+03, 8.63983691e+03,
          5.37836670e+03, 5.89002393e+03, 1.25898271e+04, 2.82001318e+03 ]
      - [ 1.11504678e+04, 6.10653467e+03, 4.68217529e+03, 1.15820078e+04,
          2.03395056e+03, 9.51250781e+03, 2.93503809e+03, 9.79748926e+03,
          6.04277393e+03, 6.27503564e+03, 1.29121221e+04, 4.43268701e+03 ]
      - [ 3.48781665e+03, 274., 3.53120117e+03, 5.61030225e+03,
          5.61377869e+02, 6.66033545e+03, 1.90774023e+03, 8.56360059e+03,
          1.93827380e+03, 1.26235400e+03, 6.97924268e+03, 5.99355762e+03 ]
      - [ 1.29315957e+04, 8.58021011e+01, 9.61417090e+03, 1.42098594e+04,
          2.58741138e+03, 1.03879912e+04, 9.88297266e+03, 1.41281631e+04,
          2.78492920e+03, 8.50997070e+02, 1.63454824e+04, 1.06356455e+04 ]
      - [ 1.24733242e+04, 0., 5.86823389e+03, 7.40729590e+03,
          2.16772241e+03, 1.16577383e+04, 4.71067236e+03, 1.38450850e+04,
          3.02831470e+03, 1.21224255e+03, 1.46222246e+04, 6.07242773e+03 ]
      - [ 1.50021445e+04, 3.61765894e+03, 5.06009814e+03, 1.10944180e+04,
          3.69379248e+03, 1.64735586e+04, 5.42257910e+03, 1.11644053e+04,
          8.52424219e+03, 1.00255576e+04, 9.56309473e+03, 1.22306729e+04 ]
      - [ 1.38074258e+04, 0., 1.06062471e+04, 1.08381719e+04,
          1.52759790e+03, 1.21188457e+04, 1.09745771e+04, 8.50071094e+03,
          4.50668945e+03, 5.09570752e+03, 6.73072852e+03, 1.30160645e+04 ]
      - [ 9.09196094e+03, 2.13018570e+02, 8.31031445e+03, 1.11893711e+04,
          2.48224731e+03, 1.21723262e+04, 8.67416797e+03, 1.22740547e+04,
          4.17794971e+03, 3.17221045e+03, 1.86172754e+04, 8.11619775e+03 ]
      - [ 3.93294019e+03, 8.03747925e+02, 2.40489502e+03, 5.25056348e+03,
          0., 5.19550928e+03, 3.71247925e+03, 5.83857373e+03,
          9.50777710e+02, 7.93629395e+02, 7.58591162e+03, 2.85428662e+03 ]
      - [ 1.01567012e+04, 2.82842708e+00, 8.17249219e+03, 1.47266660e+04,
          5.26805371e+03, 8.30820605e+03, 1.03173809e+04, 1.43794092e+04,
          3.76743994e+03, 1.70467590e+03, 1.53569756e+04, 1.21095586e+04 ]
      - [ 7.02973584e+03, 0., 7.34748926e+03, 1.05997979e+04,
          8.34865265e+01, 1.12066055e+04, 4.18721924e+03, 1.14971221e+04,
          4.92806543e+03, 3.21789624e+03, 1.65441113e+04, 6.33381787e+03 ]
      - [ 1.85706445e+04, 0., 7.69621045e+03, 1.36274316e+04,
          7.41124316e+03, 1.57605908e+04, 7.10532178e+03, 1.27148672e+04,
          2.37983960e+03, 8.97534766e+03, 1.37602373e+04, 1.33348389e+04 ]
      - [ 1.12926865e+04, 0., 1.04309170e+04, 8.72854395e+03,
          2.09924805e+03, 1.18734082e+04, 1.34507178e+04, 1.32636260e+04,
          5.07206104e+03, 7.50981934e+03, 1.48214463e+04, 8.12764355e+03 ]
      - [ 1.24635420e+04, 7.25360010e+03, 2.55776318e+03, 1.07193809e+04,
          4.96373291e+02, 1.40598271e+04, 7.71935693e+03, 1.15916250e+04,
          5.30275098e+03, 4.82654395e+03, 1.13646143e+04, 1.04243174e+04 ]
      - [ 3.86001807e+03, 0., 1.44996069e+03, 5.87573242e+03,
          9.67494141e+02, 8.78998438e+03, 4.24843506e+03, 1.00732441e+04,
          2.10179736e+03, 2.01318091e+03, 1.02290420e+04, 7.47665186e+03 ]
      - [ 1.08267383e+04, 5.53503685e+01, 8.06193652e+03, 1.22786113e+04,
          1.79357129e+03, 1.61777129e+04, 7.69109521e+03, 1.36196963e+04,
          6.15949072e+03, 4.04524854e+03, 1.55933545e+04, 1.28086152e+04 ]
      - [ 1.00355137e+04, 6.98164160e+03, 2.78521802e+03, 1.02447900e+04,
          1.76327820e+03, 8.75879199e+03, 9.76038965e+03, 1.10594746e+04,
          4.94545703e+03, 7.36036182e+03, 1.02242910e+04, 1.03963662e+04 ]
      - [ 6.46884863e+03, 7.74286621e+02, 3.09574854e+03, 3.65592773e+03,
          0., 6.57986719e+03, 8.48120996e+03, 3.19480786e+03, 0., 0.,
          7.08859766e+03, 4.95832080e+03 ]
      - [ 6.38782471e+03, 1.19337219e+03, 6.88955371e+03, 6.66431396e+03,
          0., 8.14950928e+03, 6.58079443e+03, 6.75235010e+03, 0.,
          8.30876709e+02, 1.02444561e+04, 2.33334814e+03 ]
      - [ 6.33702100e+03, 6.10300232e+02, 4.53744238e+03, 6.02957617e+03,
          0., 9.43665234e+03, 7.76118457e+03, 4.01885669e+03, 24.,
          9.76104370e+02, 4.24375049e+03, 8.81861621e+03 ]
      - [ 1.09594648e+04, 2.07647510e+03, 6.56815820e+03, 1.22620957e+04,
          4.48842090e+03, 7.33426904e+03, 7.18104199e+03, 1.46490801e+04,
          3.85898730e+03, 3.00713184e+03, 1.66756699e+04, 8.97437891e+03 ]
      - [ 9.87602344e+03, 5.55063525e+03, 3.34501147e+03, 7.43375488e+03,
          1.18793225e+03, 7.71938770e+03, 9.31511426e+03, 1.09959600e+04,
          4.06690137e+03, 6.71312109e+03, 1.21940215e+04, 6.20077148e+03 ]
      - [ 1.10254619e+04, 0., 6.67687354e+03, 1.02173398e+04,
          6.69015186e+03, 7.69902881e+03, 7.53113574e+03, 1.20156445e+04,
          3.27717383e+03, 4.37387421e+02, 1.24059580e+04, 1.24960918e+04 ]
      - [ 7.51041357e+03, 5.60430176e+02, 1.05370020e+04, 1.22038281e+04,
          4.93504346e+03, 5.84830225e+03, 2.98489941e+03, 1.19417900e+04,
          1.25480566e+03, 5.15402148e+03, 8.47259570e+03, 8.11777295e+03 ]
      - [ 5.35104346e+03, 1.00820734e+03, 5.64336279e+03, 7.49053223e+03,
          2.64979712e+03, 8.52022559e+03, 1.27112756e+03, 9.27942969e+03,
          3.75724146e+03, 5.14479248e+03, 1.03646484e+04, 2.99884277e+03 ]
      - [ 9.95397363e+03, 0., 9.15122461e+03, 1.23773721e+04,
          5.42141724e+02, 9.37377246e+03, 6.89583057e+03, 1.23058936e+04,
          3.45291211e+03, 4.59131738e+03, 1.62272686e+04, 3.92766138e+03 ]
      - [ 8.83093652e+03, 0., 4.96304102e+03, 7.90349902e+03, 0.,
          8.16348193e+03, 1.62717188e+03, 1.11475830e+04, 5.01286530e+02,
          2.98320654e+03, 1.24911035e+04, 2.14983740e+03 ]
      - [ 1.21258818e+04, 3.23471484e+03, 7.58051172e+03, 1.58477275e+04,
          2.14403101e+03, 1.65777988e+04, 6.13876025e+03, 1.19176553e+04,
          7.58647266e+03, 5.49288916e+03, 1.44716797e+04, 1.11729785e+04 ]
      - [ 1.55316563e+04, 0., 1.03223564e+04, 1.00493262e+04,
          4.37908722e+02, 1.64410527e+04, 1.07081260e+04, 1.25769688e+04,
          3.31457227e+03, 6.00621826e+03, 1.29333223e+04, 1.06523047e+04 ]
      - [ 8.79020215e+03, 0., 6.43049854e+03, 6.84876807e+03, 356.,
          7.30425977e+03, 6.25366064e+03, 7.14968213e+03, 2.06712842e+03,
          4.42611133e+03, 1.13535488e+04, 1.76557422e+03 ]
      - [ 1.03340381e+04, 4.49444084e+01, 8.96059180e+03, 6.48127832e+03,
          8.86253128e+01, 6.91354150e+03, 5.73578174e+03, 1.05336006e+04,
          3.45865479e+03, 4.47226953e+03, 1.16919434e+04, 7.04604883e+03 ]
      - [ 2.08737324e+04, 0., 1.36197520e+04, 1.60557842e+04, 26.,
          2.18580488e+04, 1.24514287e+04, 1.21068984e+04, 5.64995264e+03,
          7.29172217e+03, 1.41460156e+04, 1.39049102e+04 ]
      - [ 1.65236621e+04, 0., 1.16744424e+04, 1.11277500e+04,
          1.72557593e+03, 1.60725342e+04, 1.39369775e+04, 1.12447344e+04,
          5.03773633e+03, 7.27334277e+03, 1.08035898e+04, 1.43954629e+04 ]
      - [ 1.52202188e+04, 0., 1.19964277e+04, 1.09180508e+04,
          1.05520227e+03, 1.32671758e+04, 1.24010557e+04, 1.04869844e+04,
          5.86050635e+03, 5.04248877e+03, 1.61061465e+04, 8.34942676e+03 ]
      - [ 1.19722510e+04, 1.15663315e+02, 1.09650830e+04, 8.87357324e+03,
          2.35509277e+03, 1.32030098e+04, 1.33197090e+04, 6.88075098e+03,
          4.47143115e+03, 5.31602734e+03, 1.23623271e+04, 7.62910254e+03 ]
      - [ 9.61620508e+03, 1.31917517e+03, 4.11046191e+03, 4.52860449e+03,
          2.03823456e+02, 9.92852930e+03, 4.71804736e+03, 8.24239160e+03,
          2.86549658e+03, 1.97622998e+03, 1.32021533e+04, 4.13299072e+03 ]
      - [ 1.20540400e+04, 4.98196754e+01, 8.57816113e+03, 9.09939551e+03,
          0., 1.23429717e+04, 9.71180469e+03, 6.13215723e+03,
          3.01521582e+03, 3.99201416e+03, 9.28701270e+03, 9.61787500e+03 ]
      - [ 1.48226182e+04, 2.85834888e+03, 8.00005713e+03, 8.86312207e+03,
          3.20489282e+03, 1.85970488e+04, 6.60932080e+03, 1.41095078e+04,
          2.85469873e+03, 5.03744189e+03, 1.35451348e+04, 9.22052637e+03 ]
      - [ 8.23708887e+03, 0., 1.10563984e+04, 1.03711221e+04,
          4.93963547e+01, 1.01459268e+04, 2.61168042e+03, 1.28010479e+04,
          4.60532227e+03, 8.39264258e+03, 1.33061787e+04, 5.18042236e+03 ]
      - [ 1.41692568e+04, 2.73588281e+03, 7.55502002e+03, 1.04453984e+04,
          1.59724646e+03, 1.50875098e+04, 1.03584893e+04, 1.04212979e+04,
          3.05182739e+03, 5.22929688e+03, 1.14688301e+04, 1.00419297e+04 ]
      - [ 1.55659463e+04, 0., 1.20526992e+04, 1.00210957e+04,
          3.57115625e+03, 1.58339131e+04, 7.79220459e+03, 1.14660322e+04,
          5.06112305e+03, 8.28462305e+03, 8.50699707e+03, 1.53946328e+04 ]
      - [ 1.35952344e+04, 3.28235938e+03, 4.56552393e+03, 9.21176074e+03,
          4.04985718e+02, 1.14073926e+04, 7.80381787e+03, 1.05013555e+04,
          4.56608203e+03, 3.93478394e+03, 1.36474355e+04, 7.11704932e+03 ]
      - [ 1.42624990e+04, 0., 9.78240430e+03, 9.90577441e+03, 0.,
          1.42716465e+04, 5.32735840e+03, 1.50433662e+04, 3.09144629e+03,
          6.05558008e+03, 1.19879102e+04, 1.33424688e+04 ]
      - [ 1.85233984e+04, 2.25758316e+02, 7.56428027e+03, 1.08735674e+04,
          0., 2.18444941e+04, 9.99494043e+03, 1.01306855e+04,
          2.32867432e+03, 8.34274219e+03, 9.20808301e+03, 1.75488828e+04 ]
      - [ 1.41851445e+04, 0., 1.24905293e+04, 9.64729785e+03,
          1.60988754e+02, 1.40411768e+04, 8.29831641e+03, 1.27540127e+04,
          6.12198340e+03, 9.64407715e+03, 1.07954170e+04, 9.80018066e+03 ]
      - [ 1.06462783e+04, 0., 9.93319922e+03, 8.61033398e+03,
          4.52869324e+02, 1.42609170e+04, 6.30628369e+03, 1.27871758e+04,
          5.47474731e+02, 1.03015771e+03, 1.62112646e+04, 6.42952930e+03 ]
      - [ 1.04207705e+04, 1.04022942e+02, 1.09691045e+04, 7.90168506e+03,
          4.29127588e+03, 1.75035020e+04, 6.08307373e+03, 1.35245859e+04,
          1.08989819e+03, 2.87005566e+03, 1.41147236e+04, 8.61877441e+03 ]
      - [ 8.55826367e+03, 0., 9.27873926e+03, 7.09262744e+03,
          5.52918396e+02, 8.54517383e+03, 9.75978760e+02, 1.35725420e+04,
          1.38615479e+03, 3.50380811e+03, 1.08032285e+04, 5.85087354e+03 ]
      - [ 1.22006602e+04, 5.33708252e+02, 9.92423828e+03, 1.59389648e+04,
          0., 1.84266797e+04, 7.75052441e+03, 1.17981992e+04,
          6.62829529e+02, 5.60396240e+03, 1.42815938e+04, 1.17133916e+04 ]
      - [ 1.51156211e+04, 5.83598730e+03, 0., 6.97110303e+03,
          7.46975952e+02, 1.57154785e+04, 8.30251758e+03, 1.00631758e+04,
          2.70207617e+03, 3.35392920e+03, 1.44616777e+04, 3.55145947e+03 ]
      - [ 9.82632715e+03, 4.73007141e+02, 6.43883594e+03, 6.84890918e+03,
          1.31118384e+03, 6.96368066e+03, 6.71924072e+03, 8.92715137e+03,
          2.85451489e+03, 2.83308325e+03, 1.35053916e+04, 4.85556201e+03 ]
      - [ 1.43070635e+04, 0., 1.02965420e+04, 1.12064873e+04,
          5.82753784e+02, 1.78165781e+04, 4.68909570e+03, 1.71836992e+04,
          1.87887671e+03, 3.14964014e+03, 1.44156914e+04, 9.69097168e+03 ]
      - [ 1.18819502e+04, 5.91991211e+02, 1.07634258e+04, 1.35134229e+04,
          1.60894379e+02, 1.61169971e+04, 1.06311729e+04, 1.25674414e+04,
          2.86988184e+03, 2.36446191e+03, 1.50332891e+04, 9.57863184e+03 ]
      - [ 1.34479863e+04, 4.19839014e+03, 5.58864063e+03, 7.89797266e+03,
          0., 1.10452422e+04, 7.44580811e+03, 1.00970908e+04,
          3.26362134e+03, 3.85574854e+03, 1.25578740e+04, 7.45512744e+03 ]
      - [ 7.43199707e+03, 1.98179968e+03, 1.04344541e+04, 9.72080859e+03,
          4.24264050e+00, 1.51185049e+04, 1.13526831e+03, 1.40392402e+04,
          1.83224411e+02, 1.55450769e+03, 1.27132275e+04, 5.13371875e+03 ]
      - [ 9.91875879e+03, 0., 5.43300635e+03, 7.88901709e+03,
          2.69725024e+03, 7.58468652e+03, 4.83859717e+03, 8.53047070e+03,
          1.59515698e+03, 4.19660059e+03, 1.32069639e+04, 2.41625610e+03 ]
      - [ 1.06135664e+04, 8.94799866e+02, 4.93101416e+03, 7.45568652e+03,
          0., 1.09033574e+04, 3.24411230e+03, 1.20365195e+04,
          9.92851563e+02, 2.72901563e+03, 1.28942568e+04, 5.43426611e+03 ]
      - [ 1.87641641e+04, 0., 7.23785645e+03, 1.21092568e+04, 0.,
          2.24738828e+04, 6.32013818e+03, 1.45892061e+04, 2.22789185e+03,
          7.36645703e+03, 1.26222441e+04, 1.23434336e+04 ]
      - [ 1.57300117e+04, 0., 6.38867969e+03, 1.20451143e+04,
          3.49631348e+02, 2.07969336e+04, 7.49252148e+03, 1.05200801e+04,
          3.34763818e+03, 9.61581055e+03, 1.32601094e+04, 9.00638477e+03 ]
      - [ 8.12234424e+03, 2.02975635e+03, 5.94318213e+03, 6.65152197e+03,
          0., 6.58527295e+03, 3.97789966e+03, 9.35537891e+03,
          1.70036731e+03, 3.95256079e+03, 1.23687197e+04, 2.18205859e+03 ]
      - [ 7.39204346e+03, 0., 5.88341260e+03, 5.54038477e+03,
          7.02139587e+01, 8.12687744e+03, 4.21205420e+03, 1.01831230e+04,
          1.85459155e+03, 3.22446338e+03, 8.14725781e+03, 7.44104297e+03 ]
      - [ 1.34300273e+04, 3.77043762e+02, 4.78201416e+03, 7.85067139e+03,
          5.60141846e+02, 14267., 3.91652051e+03, 1.35521377e+04,
          2.11425195e+03, 5.65895361e+03, 1.03190176e+04, 9.45483691e+03 ]
      - [ 1.09523291e+04, 0., 1.09109619e+04, 8.73714160e+03,
          4.24264069e+01, 1.00886250e+04, 1.43125769e+03, 1.33590557e+04,
          3.69397510e+03, 6.26890039e+03, 9.31953223e+03, 6.61230957e+03 ]
      - [ 1.45340635e+04, 1.72490845e+03, 7.21440771e+03, 6.78605322e+03,
          3.21322339e+03, 1.52661035e+04, 1.05154580e+04, 1.32009336e+04,
          2.81642798e+03, 5.58176221e+03, 1.39028730e+04, 1.20854766e+04 ]
      - [ 1.05286484e+04, 9.27400024e+02, 4.53395020e+03, 6.98281494e+03,
          3.28208008e+02, 1.17139111e+04, 3.64955811e+03, 6.55937256e+03,
          2.43960156e+03, 7.08696436e+03, 7.44710303e+03, 6.59439941e+03 ]
      - [ 1.09586475e+04, 0., 1.12720752e+04, 1.08770381e+04, 60.,
          8.30129590e+03, 9.77974219e+03, 1.01259727e+04, 3.74669360e+03,
          2.24298267e+03, 1.68585430e+04, 1.50767114e+03 ]
      - [ 1.02250449e+04, 1.63565198e+03, 5.53701221e+03, 6.79558984e+03,
          5.13670532e+02, 8.50936816e+03, 7.91351440e+02, 1.08065469e+04,
          2.52559131e+03, 5.53520947e+03, 9.82645508e+03, 3.20783472e+03 ]
      - [ 1.38864258e+04, 0., 8.19135986e+03, 1.10313389e+04, 340.,
          1.24783320e+04, 7.50237061e+03, 1.06935752e+04, 1.49630566e+03,
          4.72843555e+03, 1.74737793e+04, 3.67178687e+03 ]
      - [ 1.16975283e+04, 0., 4.67033301e+03, 6.26824951e+03, 0.,
          1.17312617e+04, 4.19120313e+03, 1.31600127e+04, 1.05841541e+03,
          2.30444727e+03, 1.41611582e+04, 6.54214795e+03 ]
      - [ 1.82449941e+04, 0., 9.85623926e+03, 1.37202900e+04,
          5.64531433e+02, 2.21867168e+04, 1.08477344e+04, 1.29671172e+04,
          2.98720898e+03, 7.61865234e+03, 1.33938379e+04, 1.41584902e+04 ]
      - [ 1.90072344e+04, 1.34617981e+02, 7.99535840e+03, 1.06447354e+04,
          7.32509399e+02, 2.20053809e+04, 1.54692451e+04, 1.01601592e+04,
          4.88300098e+03, 6.80745410e+03, 1.46807139e+04, 1.49999746e+04 ]
      - [ 1.27534541e+04, 0., 8.51608984e+03, 8.09936865e+03, 0.,
          1.14486357e+04, 6.32551221e+03, 1.20579160e+04, 2.85939868e+03,
          6.07370264e+03, 1.54556152e+04, 5.84463184e+03 ]
      - [ 9.31323242e+03, 0., 6.76704053e+03, 1.00837588e+04, 208.,
          7.46138135e+03, 6.17999268e+03, 1.03722568e+04, 1.59938367e+03,
          1.15909729e+03, 1.50987256e+04, 9.08817017e+02 ]
      - [ 6.68954102e+03, 6.14003258e+01, 4.75528076e+03, 3.56459790e+03,
          9.18458130e+02, 5.85760596e+03, 7.56901550e+02, 8.39761328e+03,
          2.43528229e+02, 1.59478320e+03, 7.71867383e+03, 2.85494141e+03 ]
      - [ 1.57273301e+04, 5.07740097e+01, 1.23573232e+04, 1.22745615e+04,
          5.51343811e+02, 1.66468105e+04, 8.83149316e+03, 1.28737383e+04,
          6.55893066e+03, 8.51528613e+03, 1.15077031e+04, 1.37357783e+04 ]
      - [ 1.63194180e+04, 5.35905762e+01, 1.06806992e+04, 9.63087891e+03,
          2.83184985e+03, 1.83702148e+04, 9.50125098e+03, 1.34043877e+04,
          3.20280811e+03, 3.12690479e+03, 1.62836660e+04, 5.13614746e+03 ]
      - [ 9.80160645e+03, 2.40831890e+01, 5.78055176e+03, 5.94446631e+03,
          1.56894507e+03, 5.74904395e+03, 2.44929248e+03, 9.10676172e+03,
          1.08401892e+03, 2.26047412e+03, 1.03339326e+04, 2.41231055e+03 ]
      - [ 8.52579785e+03, 5.14648804e+02, 5.38519873e+03, 3.69086621e+03,
          1.38799524e+03, 8.89571289e+03, 5.18761914e+03, 6.96597852e+03,
          2.24505688e+03, 1.48338696e+03, 7.80635449e+03, 3.39117578e+03 ]
      - [ 1.04597383e+04, 0., 3.49539209e+03, 4.20491260e+03,
          2.58069763e+01, 1.02845527e+04, 2.73762231e+03, 1.15941289e+04,
          2.44180005e+03, 2.04450562e+03, 1.15814053e+04, 5.60682422e+03 ]
      - [ 8.33591211e+03, 0., 3.56655688e+03, 5.23643994e+03,
          1.31323572e+03, 5.44421826e+03, 3.55397559e+03, 7.43280176e+03,
          1.34408459e+03, 2.19246362e+03, 1.00712539e+04, 1.60589539e+03 ]
      - [ 6.71010596e+03, 0., 9.48898633e+03, 1.02827188e+04,
          1.13772469e+02, 1.07595117e+04, 7.56448975e+02, 1.43066494e+04,
          5.11971582e+03, 8.30686230e+03, 1.25137480e+04, 3.78584912e+03 ]
      - [ 5.21115771e+03, 6.16116867e+01, 3.34319092e+03, 3.20090674e+03,
          9.89949512e+00, 5.88495215e+03, 1.58510022e+03, 8.92554980e+03,
          1.31535583e+03, 2.03581274e+03, 8.49726758e+03, 4.21326123e+03 ]
      - [ 9.63768848e+03, 1.84202881e+03, 2.40561133e+03, 5.95190186e+03,
          2.02019458e+03, 7.83403027e+03, 4.55543018e+03, 9.17760645e+03,
          1.62233044e+03, 3.20934570e+03, 1.03882324e+04, 2.76878833e+03 ]
      - [ 1.79377461e+04, 3.66716992e+03, 7.10312012e+03, 1.10058066e+04,
          4.41982959e+03, 1.91151797e+04, 6.72906299e+03, 1.48935869e+04,
          5.33246973e+03, 1.00773633e+04, 1.39710605e+04, 1.01024941e+04 ]
      - [ 8.42568945e+03, 0., 4.17270166e+03, 8.24526953e+03, 0.,
          1.02146074e+04, 1.47103406e+03, 1.00955869e+04, 6.60630432e+02,
          9.73765747e+02, 1.21545068e+04, 1.82414465e+03 ]
      - [ 1.26660400e+04, 7.45109192e+02, 1.15930195e+04, 1.37623193e+04,
          1.28523987e+02, 1.39890859e+04, 1.17627295e+04, 1.43466680e+04,
          7.87185449e+03, 4.98249805e+03, 1.48708184e+04, 1.42399961e+04 ]
      - [ 1.19521943e+04, 4.24264050e+00, 9.23093652e+03, 1.13296787e+04,
          9.57339478e+01, 1.31582725e+04, 1.27761162e+04, 1.20366465e+04,
          4.84045654e+03, 5.20778906e+03, 1.24894072e+04, 1.38459766e+04 ]
      - [ 1.72103184e+04, 0., 1.64777129e+04, 1.30527090e+04,
          2.80332031e+03, 1.75049355e+04, 7.96262842e+03, 1.46063633e+04,
          4.52365039e+03, 8.29294922e+03, 1.30105547e+04, 1.53239463e+04 ]
      - [ 1.23396211e+04, 7.38782806e+01, 1.23517627e+04, 8.88995508e+03,
          8.21233337e+02, 9.43243066e+03, 1.15068496e+04, 9.35883398e+03,
          4.27220898e+03, 5.97510938e+03, 1.22569834e+04, 1.00056016e+04 ]
      - [ 1.52751777e+04, 0., 8.28898926e+03, 9.62583203e+03,
          2.44910965e+01, 1.45708594e+04, 4.69760986e+03, 1.38732080e+04,
          2.42835352e+03, 2.12898730e+03, 1.32570752e+04, 6.79520459e+03 ]
      - [ 9.68045410e+03, 1.13173347e+02, 9.24390918e+03, 9.91549023e+03,
          4.98350977e+03, 1.57388301e+04, 3.82746680e+03, 1.54031641e+04,
          5.14750342e+03, 8.61650195e+03, 1.05572813e+04, 1.35831475e+04 ]
      - [ 9.44169238e+03, 3.25576401e+01, 5.29612793e+03, 6.39067383e+03,
          1.56794788e+03, 4.82393018e+03, 3.62572754e+03, 8.88516211e+03,
          1.75534546e+03, 2.20512427e+03, 9.83646875e+03, 1.52659790e+03 ]
      - [ 1.27627871e+04, 4.17799072e+02, 5.72071680e+03, 5.14357666e+03,
          2.46270288e+03, 1.53638945e+04, 9.39833008e+03, 9.75979980e+03,
          3.02464331e+03, 5.43321240e+03, 1.18139473e+04, 1.09590508e+04 ]
      - [ 1.62548174e+04, 0., 8.02689014e+03, 7.04849463e+03,
          1.58600128e+02, 1.72485723e+04, 1.10590527e+04, 8.67921191e+03,
          4.93989697e+03, 2.89280225e+03, 1.31885352e+04, 7.56578076e+03 ]
      - [ 1.03752402e+04, 0., 4.29052637e+03, 5.23818701e+03, 0.,
          9.47131152e+03, 2.20560010e+03, 1.13015840e+04, 1.17614807e+03,
          2.37141016e+03, 1.24033584e+04, 3.69710913e+03 ]
      - [ 1.70944375e+04, 1.01518478e+02, 1.39533066e+04, 1.18938730e+04,
          2.55063400e+02, 1.48245283e+04, 7.59941455e+03, 1.32667803e+04,
          5.72118945e+03, 8.65058301e+03, 1.16937676e+04, 1.13351904e+04 ]
      - [ 1.16793320e+04, 1.38664795e+03, 5.98632373e+03, 1.10230664e+04,
          2.66092725e+03, 7.83606689e+03, 7.61844678e+03, 1.00157373e+04,
          1.63574341e+03, 5.34921924e+03, 1.59342607e+04, 3.77707935e+03 ]
      - [ 1.42517236e+04, 1.65543799e+03, 5.67056738e+03, 4.38502100e+03,
          4.06185889e+03, 1.45020928e+04, 1.04154053e+04, 1.08667852e+04,
          3.97005542e+03, 6.21001563e+03, 1.35007744e+04, 8.93625098e+03 ]
      - [ 1.70810781e+04, 0., 1.16092910e+04, 1.18364287e+04,
          3.96703589e+03, 1.47513291e+04, 1.25341885e+04, 1.45118105e+04,
          2.53866724e+03, 8.89650391e+03, 1.21943184e+04, 1.59914951e+04 ]
      - [ 7.96559277e+03, 0., 4.26925830e+03, 3.83892944e+03,
          2.62548438e+03, 7.51016064e+03, 4.46672412e+03, 1.06562266e+04,
          2.02136304e+03, 3.92069385e+03, 1.03664648e+04, 6.10502490e+03 ]
      - [ 1.24152549e+04, 0., 9.16270215e+03, 9.42002832e+03,
          4.63231006e+03, 1.40533389e+04, 9.08028418e+03, 1.19436621e+04,
          3.57562769e+03, 5.87248682e+03, 1.08691113e+04, 1.25878047e+04 ]
      - [ 1.06911846e+04, 0., 8.42789258e+03, 1.04290498e+04, 0.,
          1.09143320e+04, 4.73145459e+03, 1.46682148e+04, 9.63137085e+02,
          3.31226807e+03, 1.45240967e+04, 1.06972051e+04 ]
      - [ 6.20937793e+03, 5.60357018e+01, 4.85612305e+03, 3.83879590e+03,
          1.02582434e+03, 5.39927832e+03, 4.38885986e+03, 7.16499463e+03,
          2.66215918e+03, 3.94999854e+03, 7.15573096e+03, 4.77937598e+03 ]
      - [ 9.10844336e+03, 5.69985986e+03, 0., 3.86818896e+03,
          9.94773193e+02, 1.11219287e+04, 1.11689395e+04, 7.69221875e+03,
          8., 5.53276563e+03, 1.12429385e+04, 5.37174561e+03 ]
      - [ 7.39980469e+03, 6.75981262e+02, 1.55673291e+03, 4.79845166e+03,
          0., 7.60597607e+03, 5.46197559e+03, 7.48672607e+03,
          3.06024384e+02, 7.25437561e+02, 1.10442002e+04, 5.43958887e+03 ]
      - [ 1.14817070e+04, 1.17611011e+03, 2.34477100e+03, 7.04528857e+03,
          1.37748047e+03, 1.48269502e+04, 5.29559570e+03, 1.10374502e+04,
          5.52722046e+02, 5.85734082e+03, 1.14172598e+04, 8.10548682e+03 ]
      - [ 1.69445293e+04, 8.76355859e+03, 1.29243958e+02, 7.47785449e+03,
          1.29036902e+03, 1.50977900e+04, 1.40255107e+04, 1.12089424e+04,
          4.23815735e+02, 7.91867334e+03, 1.66498281e+04, 7.81455518e+03 ]
      - [ 3.84361133e+03, 3.24935791e+03, 2.27330615e+03, 5.22314697e+03,
          1.22833630e+03, 7.98248633e+03, 4.78859521e+03, 1.00903457e+04,
          5.08670459e+03, 3.67322412e+03, 1.24791533e+04, 7.09225684e+03 ]
      - [ 3.52610718e+03, 3.53556030e+03, 2.22564331e+03, 6.00276660e+03,
          3.06670361e+03, 7.37335156e+03, 4.81182324e+03, 1.06074131e+04,
          5.49451758e+03, 4.78295898e+03, 1.21920762e+04, 8.56194336e+03 ]
      - [ 1.05281436e+04, 1.65423486e+03, 5.02195168e+01, 6.11825879e+03,
          1.72254932e+03, 8.40715527e+03, 3.81654541e+03, 1.17376006e+04,
          3.31001526e+02, 4.82672705e+03, 1.05115479e+04, 6.64514453e+03 ]
      - [ 5.54985791e+03, 4.83514453e+03, 1.61275330e+02, 4.37845557e+03,
          2.44986719e+03, 8.89522266e+03, 4.02674658e+03, 1.04361475e+04,
          7.35956982e+03, 5.93873828e+03, 1.11972393e+04, 6.60234131e+03 ]
      - [ 7.41496826e+03, 3.41196350e+02, 1.34372620e+02, 2.93698926e+03,
          3.72503662e+03, 5.80673193e+03, 7.82071875e+03, 6.63459961e+03,
          0., 1.65789331e+03, 1.10174697e+04, 6.96790381e+03 ]
      - [ 9.61284180e+03, 3.23290723e+03, 1.53291028e+03, 4.27955713e+03,
          0., 7.91623047e+03, 8.18367236e+03, 8.63841406e+03, 0.,
          4.39683960e+02, 1.21374424e+04, 7.28830200e+02 ]
      - [ 5.71852344e+03, 2.56716479e+03, 2.31093408e+03, 3.67830835e+03,
          1.93945972e+03, 9.84533398e+03, 5.24603516e+03, 1.03501611e+04,
          1.60139990e+03, 2.40780688e+03, 1.23018359e+04, 4.72996680e+03 ]
      - [ 5.61343066e+03, 3.42723071e+03, 1.86796460e+03, 4.34574512e+03,
          14., 5.92747119e+03, 5.83799609e+03, 4.83346631e+03, 0., 0.,
          9.60983984e+03, 2.70657837e+03 ]
      - [ 1.36624277e+04, 2.01503027e+03, 0., 5.26551367e+03, 0.,
          1.51368818e+04, 1.39174756e+04, 1.15297217e+04, 0.,
          6.55838965e+03, 1.48718799e+04, 6.78617920e+03 ]
      - [ 1.38237021e+04, 2.97779712e+03, 8.65794449e+01, 5.63370020e+03,
          8.87022476e+01, 1.40652061e+04, 1.35897002e+04, 1.15707070e+04,
          0., 4.28102490e+03, 1.57450469e+04, 4.68450781e+03 ]
      - [ 3.72700537e+03, 3.05662500e+03, 3.39155444e+03, 2.04466284e+03,
          0., 4.61813867e+03, 7.53384375e+03, 7.12231592e+03, 0.,
          2.65430103e+03, 8.71109180e+03, 3.42541870e+03 ]
      - [ 1.64958438e+04, 2.02835583e+03, 0., 4.49907910e+03,
          1.00877582e+03, 1.58205605e+04, 8.09844043e+03, 1.60888916e+04,
          2.07706445e+03, 2.60379590e+03, 1.25710576e+04, 1.43334570e+04 ]
      - [ 8.37912500e+03, 1.01966003e+03, 1.03116235e+03, 4.15785059e+03,
          8.81600830e+02, 6.64946338e+03, 3.04548657e+03, 8.03515332e+03,
          0., 1.95437973e+02, 9.43739941e+03, 4.15800446e+02 ]
      - [ 7.65101172e+03, 2.24792969e+03, 0., 4.54626367e+03,
          1.23058032e+03, 1.10350361e+04, 5.16193750e+03, 9.61412109e+03,
          4.00928174e+03, 4.36991748e+03, 1.25539355e+04, 6.10879590e+03 ]
      - [ 8.28368555e+03, 4.95102051e+03, 2.68319263e+03, 7.82589111e+03,
          3.67624048e+03, 9.88965430e+03, 1.03565195e+04, 5.84856592e+03,
          1.17283972e+03, 3.22333887e+03, 9.09804492e+03, 9.38771484e+03 ]
      - [ 6.17401758e+03, 4.51959619e+03, 1.40978223e+03, 3.97254639e+03,
          2.84373901e+03, 7.85625537e+03, 5.66552832e+03, 4.68161768e+03,
          0., 4.49122998e+03, 4.12415186e+03, 7.62660205e+03 ]
      - [ 1.65878691e+04, 1.13389219e+04, 0., 6.61163525e+03,
          1.46427966e+03, 1.52262646e+04, 1.50609600e+04, 1.01866729e+04,
          0., 3.34445654e+03, 1.27150908e+04, 8.79509570e+03 ]
      - [ 7.10303076e+03, 5.43452051e+03, 6.99469910e+02, 4.70431982e+03,
          4.01222852e+03, 1.37706514e+04, 4.27484033e+03, 1.29032197e+04,
          8.67278418e+03, 4.32417773e+03, 9.47848926e+03, 1.26057305e+04 ]
      - [ 1.59134766e+04, 8.98401074e+03, 0., 7.91272217e+03,
          1.98494339e+01, 1.79625215e+04, 1.34273232e+04, 1.20715420e+04,
          0., 7.31622925e+02, 1.96865332e+04, 1.24913489e+03 ]
      - [ 1.59241904e+04, 5.70917139e+03, 0., 5.40938965e+03, 0.,
          1.73715059e+04, 1.17323613e+04, 1.29087227e+04, 0.,
          1.79342941e+02, 1.68648730e+04, 5.04957422e+03 ]
      - [ 1.61877900e+04, 7.81043115e+03, 0., 3.62768115e+03,
          1.92438080e+02, 1.99976738e+04, 1.49970010e+04, 1.34212803e+04,
          0., 5.80914063e+02, 1.72944121e+04, 5.27646045e+03 ]
      - [ 8.68105371e+03, 4.33207568e+03, 1.10588037e+03, 7.24211670e+03,
          1.46731067e+03, 9.07083398e+03, 6.54292432e+03, 8.07549414e+03,
          2.59237207e+03, 3.34677222e+03, 1.17944023e+04, 2.91186865e+03 ]
      - [ 1.28716436e+04, 6.06891309e+03, 4.21192480e+03, 1.68062646e+03,
          0., 1.92037656e+04, 1.35998076e+04, 1.26607178e+04, 0.,
          9.01186142e+01, 1.53649199e+04, 6.70109668e+03 ]
      - [ 1.40518086e+04, 4.56345508e+03, 0., 2.36339478e+03,
          3.84345184e+02, 1.05787451e+04, 1.35455674e+04, 1.26684717e+04,
          0., 4.70025879e+03, 1.33787520e+04, 9.44563965e+03 ]
      - [ 1.34714932e+04, 1.02255381e+04, 3.49284973e+01, 1.19676367e+03,
          2.80519946e+03, 1.55719902e+04, 1.59914883e+04, 1.27013848e+04,
          1.04634888e+03, 1.44462366e+03, 1.48070791e+04, 1.39149189e+04 ]
      - [ 1.30372949e+04, 9.78626563e+03, 1.65183813e+03, 1.04205850e+04,
          5.21595215e+03, 1.33628369e+04, 5.73106152e+03, 1.40032188e+04,
          7.90734668e+03, 7.82227783e+03, 1.07843369e+04, 1.21824619e+04 ]
      - [ 1.28147246e+04, 9.84875684e+03, 3.13677808e+03, 9.99159375e+03,
          3.71760107e+03, 1.25874619e+04, 1.02956992e+04, 1.17423027e+04,
          5.01188477e+03, 5.45157715e+03, 1.35330088e+04, 1.20344502e+04 ]
      - [ 1.24521602e+04, 2.43027319e+03, 0., 3.30879956e+03,
          6.80529785e+02, 1.12201455e+04, 6.83002051e+03, 1.28511611e+04,
          0., 3.40091919e+03, 1.51176143e+04, 3.97295483e+03 ]
      - [ 1.25925400e+04, 3.69499048e+03, 9.49005188e+02, 5.85105127e+03,
          2.35567383e+02, 1.24222432e+04, 5.23060449e+03, 1.05133750e+04,
          1.53851953e+03, 3.95867334e+03, 1.07344854e+04, 5.38732129e+03 ]
      - [ 6.29916406e+03, 6.59137085e+02, 0., 3.12728320e+03,
          1.61717041e+03, 6.09750488e+03, 2.21483203e+03, 6.61917920e+03,
          0., 2.48801978e+03, 7.61225098e+03, 3.21949561e+03 ]
      - [ 1.70454023e+04, 9.22360449e+03, 0., 5.68313477e+03,
          1.35606705e+02, 1.64999180e+04, 1.53795557e+04, 1.18591025e+04,
          6.32455540e+00, 2.39453076e+03, 1.68355332e+04, 5.44824609e+03 ]
      - [ 5.13206201e+03, 6.80123926e+03, 6.31059814e+03, 6.42181348e+03,
          0., 1.06664834e+04, 1.10411572e+04, 9.66910840e+03, 0.,
          1.37676379e+03, 1.60574844e+04, 1.60311841e+03 ]
      - [ 1.10138955e+04, 1.92731824e+03, 0., 3.23032104e+03,
          1.66782764e+03, 1.32843027e+04, 5.41667090e+03, 8.53884082e+03,
          2.14547388e+03, 3.85969629e+03, 1.19432451e+04, 8.57694336e+03 ]
      - [ 1.67695957e+04, 1.14771572e+04, 0., 5.11161084e+03,
          1.48735498e+03, 1.79601719e+04, 1.18099092e+04, 6.69931445e+03,
          1228., 7.88027637e+03, 1.58728535e+04, 3.21199219e+03 ]
      - [ 8.07228418e+03, 2.18528442e+03, 0., 3.74699463e+03,
          1.93213232e+03, 8.92860938e+03, 4.72346191e+03, 7.75092236e+03,
          0., 4.19469531e+03, 1.15002998e+04, 1.53551917e+03 ]
      - [ 1.20909434e+04, 7.54187256e+03, 5.48486035e+03, 7.99318848e+03,
          0., 1.10561631e+04, 1.20062061e+04, 1.11986553e+04,
          7.84813965e+02, 2.07693140e+03, 1.59674756e+04, 2.46993945e+03 ]
      - [ 1.25785977e+04, 3.77567944e+03, 1.80047388e+03, 5.81863770e+03,
          0., 1.15060752e+04, 1.04840908e+04, 8.08923828e+03, 0.,
          1.57610657e+03, 1.33363369e+04, 1.95935889e+03 ]
      - [ 5.16549854e+03, 7.16501025e+03, 4.27070313e+03, 7.77653418e+03,
          3.38421899e+03, 7.24997852e+03, 8.23659082e+03, 5.55169092e+03,
          9.27495911e+02, 9.80872009e+02, 6.25120215e+03, 8.27942383e+03 ]
      - [ 5.95992725e+03, 4.48224854e+03, 1.41923792e+03, 4.91936426e+03,
          0., 4.88577734e+03, 6.15699512e+03, 4.84332764e+03,
          1.08001358e+02, 6.05905396e+02, 7.85209180e+03, 2.98450830e+03 ]
      - [ 1.08530654e+04, 5.46525391e+03, 7.03365967e+02, 4.95594824e+03,
          1.38169409e+03, 7.62477734e+03, 9.02321582e+03, 1.21530762e+04,
          0., 3.57721729e+03, 1.21813311e+04, 7.14743311e+03 ]
      - [ 1.13943262e+04, 2.28089282e+03, 0., 3.75807227e+03, 0.,
          9.73986719e+03, 7.42219922e+03, 7.64443896e+03, 0.,
          9.87320374e+02, 1.05497373e+04, 1.99496252e+03 ]
      - [ 1.11874512e+04, 5.38522461e+02, 1.77200451e+01, 4.73924268e+03,
          0., 8.26595313e+03, 7.35400928e+03, 1.04928496e+04, 0.,
          1.62925391e+03, 1.36579453e+04, 3.49289697e+03 ]
      - [ 7.83549023e+03, 3.02535950e+02, 1.11840747e+03, 4.35002246e+03,
          1.95494116e+03, 7.95149219e+03, 3.24238794e+03, 9.86964160e+03,
          1.72046509e+01, 2.87510059e+03, 1.02355605e+04, 4.83265430e+03 ]
      - [ 1.68166230e+04, 8.83980371e+03, 0., 6.68875537e+03, 0.,
          1.63959473e+04, 1.30676367e+04, 1.08950781e+04, 0.,
          1.22320325e+03, 1.71109512e+04, 1.77072900e+03 ]
      - [ 1.67699141e+04, 9.24156738e+03, 0., 8.62297949e+03,
          3.47333960e+03, 1.32308711e+04, 1.33197676e+04, 1.61827744e+04,
          3.55192749e+02, 6.93725977e+03, 1.36593438e+04, 1.13751641e+04 ]
      - [ 8.12770166e+03, 3.08774683e+03, 1.26775391e+02, 6.65110400e+03,
          1.99084253e+03, 1.25325635e+04, 4.92596533e+03, 1.17793066e+04,
          4.82264453e+03, 4.74798438e+03, 1.35161572e+04, 1.02965088e+04 ]
      - [ 1.27546367e+04, 5.59978516e+03, 0., 3.87819067e+03,
          7.55810913e+02, 1.09838262e+04, 1.33227109e+04, 8.52555371e+03,
          412., 4.43835107e+03, 1.35216445e+04, 2.45979980e+03 ]
      - [ 9.42955762e+03, 1.88175415e+03, 2.43577515e+02, 4.31475586e+03,
          0., 8.81322461e+03, 4.46396826e+03, 8.51607813e+03,
          1.60803125e+03, 2.53899951e+03, 1.18489668e+04, 3.02351611e+03 ]
      - [ 1.39143389e+04, 3.13727246e+03, 1.08046288e+02, 5.86784912e+03,
          3.21337830e+02, 1.46007627e+04, 1.14998262e+04, 1.22507715e+04,
          1.88576306e+03, 2.52001416e+03, 1.14080332e+04, 1.14314443e+04 ]
      - [ 1.58017520e+04, 9.27534570e+03, 0., 5.80374658e+03,
          3.01887390e+02, 1.63123701e+04, 1.70720801e+04, 9.03440527e+03,
          314., 8.25349609e+03, 1.56460645e+04, 1.03159775e+04 ]
      - [ 6.30731201e+03, 2.27202075e+03, 3.77853271e+02, 3.87890210e+03,
          1.39301709e+03, 4.46640674e+03, 4.90725293e+03, 7.37482764e+03,
          0., 3.58423657e+03, 8.76100391e+03, 2.72309424e+03 ]
      - [ 1.11992891e+04, 2.40185278e+03, 1.02056924e+04, 1.00633496e+04,
          0., 1.12245049e+04, 8.58639355e+03, 7.09090430e+03,
          4.95283691e+03, 5.38551660e+03, 1.47629990e+04, 5.59168262e+03 ]
      - [ 7.23938184e+03, 1.55626196e+03, 1.79999329e+03, 3.06823511e+03,
          7.16462341e+02, 7.23981494e+03, 5.49148877e+03, 4.74687207e+03,
          4.13584717e+03, 3.68464502e+03, 6.16002930e+03, 5.50873291e+03 ]
      - [ 5.65905029e+03, 0., 8.28789355e+03, 7.08736914e+03, 0.,
          7.22583984e+03, 1.81464319e+03, 1.23720889e+04, 6.44547913e+02,
          2.69288501e+03, 1.19831367e+04, 3.46970313e+03 ]
      - [ 6.75518750e+03, 2.44229401e+02, 7.51858252e+03, 6.44568799e+03,
          3.96076880e+03, 1.02338945e+04, 4.68579980e+03, 1.37519727e+04,
          3.38423096e+03, 6.52704053e+03, 1.13747031e+04, 9.44447070e+03 ]
      - [ 1.54068379e+04, 3.64741406e+03, 0., 7.01912256e+03,
          5.08596466e+02, 1.68495801e+04, 1.30077500e+04, 7.85411865e+03,
          6.31142822e+03, 5.57936914e+03, 1.62797861e+04, 7.48812354e+03 ]
      - [ 10154., 2.51102417e+03, 3.28307861e+03, 5.23209619e+03, 254.,
          7.14164502e+03, 7.24493945e+03, 6.92056006e+03, 5.34734521e+03,
          5.01314893e+03, 1.25580596e+04, 2.10158838e+03 ]
      - [ 9.88790527e+03, 4.31440234e+03, 3.95883350e+03, 4.46747217e+03,
          5.61549463e+03, 1.15128652e+04, 7.13005518e+03, 9.86990918e+03,
          6.38312256e+03, 6.56796875e+03, 1.06326445e+04, 7.96442090e+03 ]
      - [ 5.52082910e+03, 3.27598730e+03, 4.29376074e+03, 4.94432422e+03,
          0., 8.30924609e+03, 3.01858203e+03, 4.96458740e+03,
          3.02232324e+03, 1.74116003e+03, 9.79016406e+03, 2.82052905e+03 ]
      - [ 1.54986279e+04, 5.37907275e+03, 1.17538408e+04, 1.14837891e+04,
          1.82745117e+03, 1.77912754e+04, 1.50995752e+04, 4.08452319e+03,
          8.46583105e+03, 8.64126953e+03, 1.18714873e+04, 1.34304775e+04 ]
      - [ 1.52796260e+04, 5.47144434e+03, 6.13773291e+03, 7.89482764e+03,
          6.37024345e+01, 1.58256230e+04, 1.02787881e+04, 6.43538574e+03,
          1.04912725e+04, 6.21627051e+03, 1.42284863e+04, 5.42621094e+03 ]
      - [ 8.30407813e+03, 8.20511536e+02, 6.86630762e+03, 5.16865430e+03,
          1.34598962e+03, 7.92912256e+03, 2.12897827e+03, 8.91429199e+03,
          3.63251099e+03, 5.22155029e+03, 1.16810674e+04, 1.49626245e+03 ]
      - [ 1.53481572e+04, 5.39781934e+03, 4.18706152e+03, 5.29954150e+03,
          3.25082446e+03, 1.66036621e+04, 9.82432910e+03, 2.75005859e+03,
          7.87491943e+03, 1.07277959e+04, 1.05095908e+04, 9.43840039e+03 ]
      - [ 1.70197168e+04, 3.96133130e+03, 3.04890967e+03, 8.38630566e+03,
          4.82436615e+02, 1.85199238e+04, 1.54229512e+04, 8.75085449e+03,
          8.81619922e+03, 7.60307178e+03, 1.60836113e+04, 9.77067578e+03 ]
      - [ 8.49663379e+03, 1.18139429e+03, 4.61421387e+03, 6.33637891e+03,
          6.17144592e+02, 9.39630469e+03, 3.55816943e+03, 5.44126758e+03,
          3.47864600e+03, 1.75557800e+03, 6.89494971e+03, 3.28760889e+03 ]
      - [ 1.92038477e+04, 2.96689551e+03, 6.43021191e+03, 1.19047051e+04,
          1.34724695e+03, 2.07545293e+04, 1.56176182e+04, 4.46426758e+03,
          8.73282129e+03, 7.65803369e+03, 1.48113369e+04, 1.38124033e+04 ]
      - [ 5.30305371e+03, 1.51706042e+03, 6.63287061e+03, 9.08700391e+03,
          2.05281082e+02, 9.88228320e+03, 1.17349158e+03, 9.57024902e+03,
          3.64209570e+03, 6.00236572e+03, 8.15508203e+03, 1.00844297e+04 ]
      - [ 7.02662354e+03, 5.36010938e+03, 5.93928613e+03, 6.60700928e+03,
          3.70642407e+03, 1.15199072e+04, 6.52146826e+03, 5.63633398e+03,
          3.53211719e+03, 5.39503857e+03, 9.86800586e+03, 6.78114893e+03 ]
      - [ 1.15151279e+04, 5.49063232e+02, 4.61735840e+01, 4.09956738e+03,
          1.33900684e+03, 1.28145889e+04, 5.89398584e+03, 9.10742090e+03,
          2.26733154e+03, 2.26603638e+03, 1.05231592e+04, 7.50090527e+03 ]
      - [ 1.24411572e+04, 4.40754199e+03, 2.99446167e+02, 5.00958984e+03,
          3.35832324e+03, 1.07325352e+04, 5.20784229e+03, 5.67382520e+03,
          7.58608887e+03, 6.81137793e+03, 9.99113379e+03, 3.20643896e+03 ]
      - [ 1.31289092e+04, 6.20993994e+03, 2.80301001e+03, 7.67060010e+03,
          3.87657532e+02, 1.48279111e+04, 9.04705859e+03, 3.14325757e+03,
          7.31946973e+03, 8.27401172e+03, 8.48669141e+03, 1.06206445e+04 ]
      - [ 1.21092959e+04, 5.98276221e+03, 2.65560010e+03, 4.93530273e+03,
          6.77931702e+02, 1.17285361e+04, 1.30095459e+04, 4.98863330e+03,
          7.45297461e+03, 4.83457959e+03, 1.14934326e+04, 6.94275293e+03 ]
      - [ 2.19793398e+04, 3.43859204e+03, 4.38360840e+03, 1.13494404e+04,
          7.08159607e+02, 2.23693262e+04, 1.27713164e+04, 1.03061719e+04,
          1.08371240e+04, 7.97426270e+03, 1.34267979e+04, 1.42607461e+04 ]
      - [ 8.31307227e+03, 2.43295020e+03, 3.78523657e+03, 3.22829272e+03,
          1.57312158e+03, 1.21755967e+04, 8.01432910e+03, 1.10606572e+04,
          7.13977722e+02, 5.44513135e+03, 1.17572520e+04, 8.17533203e+03 ]
      - [ 1.13299883e+04, 2.86281738e+03, 6.21670105e+02, 5.20706494e+03,
          9.31209106e+02, 9.50618555e+03, 8028., 6.26728174e+03,
          5.14164404e+03, 5.71686035e+03, 1.41355205e+04, 5.94091602e+03 ]
      - [ 8.68106152e+03, 9.32750366e+02, 1.44103564e+03, 2.78257153e+03,
          4.04534302e+02, 9.32854395e+03, 7.21334424e+03, 2.65038013e+03,
          7.03691162e+03, 3.48199097e+03, 6.70554688e+03, 6.12320703e+03 ]
      - [ 1.23200771e+04, 2.58378857e+03, 5.90680908e+03, 6.76258008e+03,
          1.81938965e+03, 9.52572266e+03, 1.03613818e+04, 4.83149951e+03,
          5.74635840e+03, 4.49331934e+03, 1.40981904e+04, 3.29440161e+03 ]
      - [ 1.77857871e+04, 1.98867078e+03, 3.60782861e+03, 1.12959355e+04,
          3.72063428e+03, 1.50878662e+04, 1.65630059e+04, 6.83828369e+03,
          9.64704199e+03, 6.68716748e+03, 1.26933213e+04, 1.73425020e+04 ]
      - [ 9.85653711e+03, 2.18630298e+03, 5.87678320e+03, 1.04348975e+04,
          0., 1.12396250e+04, 8.71822949e+03, 3.79811475e+03,
          4.73829932e+03, 4.88421289e+03, 8.47852930e+03, 8.62226270e+03 ]
      - [ 8.52182324e+03, 4.25576611e+03, 2.88498218e+03, 1.97720813e+03,
          2.31451440e+03, 1.06173154e+04, 6.59308643e+03, 9.24547266e+03,
          3.18832373e+03, 6.33977930e+03, 7.29172021e+03, 7.22545313e+03 ]
      - [ 1.51547148e+04, 1.04264563e+03, 8.36539551e+03, 9.94443359e+03,
          4.23133105e+03, 1.50587617e+04, 8.99092090e+03, 1.23002412e+04,
          7.05211230e+03, 9.08721484e+03, 1.34025137e+04, 1.14042900e+04 ]
      - [ 1.43170469e+04, 6.13230664e+03, 5.37627783e+03, 2.86623096e+03,
          1.85970276e+03, 1.86192656e+04, 1.48169404e+04, 2.71863892e+03,
          1.46562373e+04, 9.04884668e+03, 1.33521279e+04, 1.19180967e+04 ]
      - [ 2.00584531e+04, 5.15113428e+03, 4.62995166e+03, 1.08701035e+04,
          0., 2.09738301e+04, 1.32770215e+04, 3.99253174e+03,
          1.14068896e+04, 1.02910625e+04, 1.21967969e+04, 1.34954756e+04 ]
      - [ 1.56255078e+04, 6.15194238e+03, 7.30558057e+03, 8.91728320e+03,
          3.93418042e+03, 1.70123750e+04, 1.47742178e+04, 4.74438281e+03,
          9.08835547e+03, 7.13863330e+03, 1.12573691e+04, 1.47737041e+04 ]
      - [ 8.67745313e+03, 6.20880127e+02, 6.88017871e+03, 7.73993799e+03,
          2.82842708e+00, 8.49728613e+03, 4.33944775e+03, 1.52273604e+04,
          1.81346667e+03, 5.06903857e+03, 1.40101309e+04, 5.79572900e+03 ]
      - [ 1.00903467e+04, 3.34838550e+03, 4.87830078e+02, 4.90052344e+03,
          5.82335571e+02, 1.03139395e+04, 6.08045459e+03, 5.65601318e+03,
          4.07529736e+03, 4.58136084e+03, 9.50456250e+03, 7.02632324e+03 ]
      - [ 1.26478389e+04, 0., 1.02939834e+04, 1.40458281e+04,
          1.41421354e+00, 1.66765840e+04, 6.79293311e+03, 1.51626436e+04,
          2.46146582e+03, 7.64311523e+03, 1.36106064e+04, 1.58710010e+04 ]
      - [ 1.59497646e+04, 2.69497705e+03, 9.72815247e+02, 5.84068604e+03,
          32., 1.40625938e+04, 9.80542383e+03, 7.06376416e+03,
          7.90917334e+03, 3.28131689e+03, 1.45997646e+04, 5.87418506e+03 ]
      - [ 1.73106875e+04, 1.67683875e+03, 1.10378047e+04, 1.00045244e+04,
          1.36698682e+03, 1.42280850e+04, 1.31525771e+04, 7.51299219e+03,
          9.12446582e+03, 8.79526074e+03, 1.28457607e+04, 9.88147363e+03 ]
      - [ 1.54255332e+04, 1.00659155e+03, 1.06150903e+03, 7.72067529e+03,
          2.80904346e+03, 1.79019766e+04, 1.06942305e+04, 1.15577119e+04,
          4.33778711e+03, 5.81183203e+03, 1.73914766e+04, 1.14011885e+04 ]
      - [ 1.81645938e+04, 5.48459082e+03, 4.64166650e+03, 1.02585078e+04,
          2.03623215e+02, 2.07358398e+04, 1.59530459e+04, 5.67732520e+03,
          9.31849316e+03, 7.31244824e+03, 1.18569951e+04, 1.37511953e+04 ]
      - [ 1.16611123e+04, 6.34861621e+03, 2.41019434e+03, 3.11138306e+03,
          3.77223926e+03, 1.42089648e+04, 8.41378418e+03, 6.98263281e+03,
          5.98183496e+03, 1.92822290e+03, 1.40926787e+04, 1.07738232e+04 ]
      - [ 7.63568750e+03, 1.45801355e+03, 3.49348462e+03, 2.90392627e+03,
          8.36270874e+02, 8.21450879e+03, 5.67486035e+03, 2.18196118e+03,
          6.17409180e+03, 3.89090552e+03, 4.13422510e+03, 3.61319678e+03 ]
      - [ 1.40555693e+04, 5.71610645e+03, 3.75660376e+03, 4.87356592e+03,
          2.59644702e+03, 1.38004365e+04, 1.19387920e+04, 3.59997363e+03,
          1.14007080e+04, 7.29134033e+03, 1.20253281e+04, 6.49022949e+03 ]
      - [ 1.35347744e+04, 5.37667139e+03, 5.48022070e+03, 9.65522070e+03,
          2.19162170e+02, 1.42451660e+04, 9.60608984e+03, 3.79189502e+03,
          1.00147158e+04, 9.25562109e+03, 1.50450205e+04, 4.72607617e+03 ]
      - [ 7.70031738e+03, 2.12239331e+03, 2.78148755e+03, 2.47873877e+03,
          1.17590479e+03, 7.43234326e+03, 6.27405176e+03, 2.79279834e+03,
          5.82222266e+03, 1.44389197e+03, 8.88862500e+03, 3.80297314e+03 ]
      - [ 8.30914844e+03, 1.21142200e+03, 2.76316943e+03, 2.63477002e+03,
          7.36412109e+02, 7.91383057e+03, 6.77510986e+03, 2.85007275e+03,
          6.00575391e+03, 4.50014111e+03, 7.68883203e+03, 2.23952417e+03 ]
      - [ 7.15478857e+03, 4.06688867e+03, 6.22672510e+03, 3.05125513e+03,
          0., 9.30901855e+03, 7.39654834e+03, 3.10882910e+03,
          7.66358154e+03, 1.17528979e+03, 1.23792578e+04, 2.42399023e+03 ]
      - [ 7.48812305e+03, 4.68670996e+03, 3.33546851e+03, 6.44601123e+03,
          4.84850281e+02, 1.12375732e+04, 5.42951660e+03, 4.52856250e+03,
          3.72379443e+03, 6.99156445e+03, 7.33501953e+03, 7.94127441e+03 ]
      - [ 1.18248926e+04, 4.15183252e+03, 1.10980896e+03, 6.88883447e+03,
          5.44809277e+03, 6.38434619e+03, 9.89315039e+03, 5.93511475e+03,
          8.11123242e+03, 8.49146777e+03, 1.23005313e+04, 3.50882764e+03 ]
      - [ 1.25949834e+04, 5.18774512e+03, 1.94766418e+02, 5.96803906e+03,
          3.76563377e+01, 1.46072705e+04, 9.76418359e+03, 4.03267139e+03,
          7.07827295e+03, 7.40400830e+03, 9.37096973e+03, 1.00252705e+04 ]
      - [ 1.60020254e+04, 3.87545361e+03, 3.82255762e+03, 8.33528613e+03,
          8.58775195e+03, 1.35771758e+04, 1.54936113e+04, 5.55531982e+03,
          8.49821777e+03, 9.39026270e+03, 1.11241328e+04, 1.33078281e+04 ]
      - [ 1.40468135e+04, 1.75363684e+03, 1.40040820e+03, 6.96268604e+03,
          6.45438004e+01, 1.71562559e+04, 1.05119639e+04, 1.14253848e+04,
          1.85790295e+03, 6.00592822e+03, 1.26471348e+04, 9.34762793e+03 ]
      - [ 1.44965254e+04, 2.70180176e+03, 2.83019800e+03, 7.50726074e+03,
          0., 1.81092813e+04, 1.09790469e+04, 7.89234082e+03,
          4.69998633e+03, 3.56960474e+03, 1.51963252e+04, 6.65152539e+03 ]
      - [ 1.08299248e+04, 2.06184619e+03, 0., 6.19062598e+03,
          3.66033301e+03, 1.18978789e+04, 9.70506836e+03, 7.22890967e+03,
          4.78468115e+03, 6.39659863e+03, 8.04963477e+03, 1.22440908e+04 ]
      - [ 1.32589648e+04, 5.71073975e+03, 2.22563745e+03, 4.84063281e+03,
          6.13556006e+03, 1.34130918e+04, 1.07106338e+04, 5.23529346e+03,
          5.47714941e+03, 6.01978125e+03, 1.01803887e+04, 9.66947363e+03 ]
      - [ 1.26473408e+04, 5.21654980e+03, 3.90128174e+01, 4.75848291e+03,
          3.76056323e+03, 1.51822656e+04, 9.75888770e+03, 3.79640967e+03,
          5.28292432e+03, 5.78165674e+03, 1.18050615e+04, 9.41683008e+03 ]
      - [ 9.25547949e+03, 1.74968359e+03, 3.90104370e+02, 1.15300635e+03,
          2.37600244e+03, 8.78906445e+03, 6.57079541e+03, 4.14168896e+03,
          5.06208301e+03, 3.15632178e+03, 6.80201074e+03, 4.65132471e+03 ]
      - [ 1.14908496e+04, 3.86787988e+03, 2.00022437e+03, 6.96286328e+03,
          3.05286751e+01, 1.55195498e+04, 1.09523633e+04, 1.01905771e+04,
          2.44884277e+03, 6.06269189e+03, 1.35277754e+04, 7.69303760e+03 ]
      - [ 1.15801035e+04, 6.41040381e+03, 2.33820264e+03, 9.33089746e+03,
          9.73903809e+02, 1.56357852e+04, 8.35426074e+03, 3.96136060e+03,
          7.51554297e+03, 9.99623047e+03, 9.19621289e+03, 9.46421387e+03 ]
      - [ 8.58395703e+03, 3.76910449e+03, 1.80462915e+03, 3.62722070e+03,
          1.71182068e+03, 6.75924658e+03, 6.14760107e+03, 4.23360889e+03,
          5.78929297e+03, 3.15609204e+03, 1.16872979e+04, 1.49590283e+03 ]
      - [ 1.05104756e+04, 3.54309888e+03, 6.04460449e+03, 8.02411865e+03,
          2.00213232e+03, 1.18256729e+04, 2.40289819e+03, 1.42828203e+04,
          5.06036523e+03, 3.53079126e+03, 1.16847090e+04, 1.00271533e+04 ]
      - [ 1.45085459e+04, 2.94907446e+03, 9.10107422e+02, 6.82255762e+03,
          2.80245996e+03, 2.06146895e+04, 1.49963086e+04, 8.35390820e+03,
          7.28876465e+03, 8.39700488e+03, 1.41848584e+04, 1.63371426e+04 ]
      - [ 1.62422119e+04, 3.50701978e+03, 2.26447803e+03, 8.04801904e+03,
          4.02750830e+03, 1.49584346e+04, 1.21901953e+04, 9.93133789e+03,
          1.02526914e+04, 9.87966602e+03, 1.33144854e+04, 7.70472266e+03 ]
      - [ 1.30589443e+04, 6.03063428e+03, 1.84673792e+03, 6.83263721e+03,
          0., 1.50757832e+04, 1.01311377e+04, 7.81921680e+03,
          4.14272021e+03, 6.54903223e+03, 1.25306016e+04, 7.10450879e+03 ]
      - [ 1.56885684e+04, 1.59577441e+03, 7.06954590e+03, 1.43782568e+04,
          1.19632774e+02, 1.92664473e+04, 1.19805850e+04, 1.16877012e+04,
          7.65445703e+03, 8.94162402e+03, 1.21998262e+04, 1.34831621e+04 ]
      - [ 1.04893389e+04, 4.97385254e+03, 1.12434258e+04, 1.27250869e+04,
          1.88919519e+03, 1.83307832e+04, 1.27693516e+04, 9.28542090e+03,
          9.73530273e+03, 8.63986523e+03, 1.21015117e+04, 1.48916338e+04 ]
      - [ 4.97563477e+03, 3.47815894e+03, 2.40829272e+03, 4.10810010e+03,
          4.94915833e+02, 7.13244678e+03, 2.48709912e+03, 2.75393359e+03,
          2.64093335e+03, 3.28134644e+03, 6.64648926e+03, 3.83828247e+03 ]
      - [ 1.31311426e+04, 5.00649414e+03, 6.31420850e+03, 1.29483828e+04,
          5.92299707e+03, 1.40249551e+04, 1.71124883e+04, 5.49674463e+03,
          9.49183301e+03, 6.03303955e+03, 1.54447852e+04, 1.66096406e+04 ]
      - [ 19808., 4.51582666e+03, 3.57267944e+03, 1.24172676e+04,
          5.60245264e+03, 1.68479453e+04, 1.88953652e+04, 6.95162109e+03,
          1.22078018e+04, 1.16608271e+04, 1.10594883e+04, 1.60807432e+04 ]
      - [ 8.84760742e+03, 3.70191113e+03, 2.02393396e+03, 3.68409619e+03,
          2.10562195e+02, 8.39393848e+03, 7.44695996e+03, 5.25677881e+03,
          5.21180078e+03, 3.36996045e+03, 9.31487891e+03, 7.45611279e+03 ]
      - [ 6.90186816e+03, 8.29456909e+02, 9.10153809e+03, 7.33983984e+03,
          1.13137083e+01, 1.29640283e+04, 5.16133447e+03, 1.10318281e+04,
          2.76619678e+03, 1.55456470e+03, 1.36059639e+04, 4.72903613e+03 ]
      - [ 1.79081777e+04, 2.35755029e+03, 5.73932910e+03, 9.30493457e+03,
          2.42978760e+02, 2.05863965e+04, 1.53775000e+04, 7.60132715e+03,
          1.02461094e+04, 8.08983643e+03, 1.03400801e+04, 1.18095527e+04 ]
      - [ 8.20857617e+03, 2.75031885e+03, 1.95975439e+03, 3.29871338e+03,
          3.27029346e+03, 6.83865430e+03, 5.22916113e+03, 3.46135718e+03,
          4.91078320e+03, 2.97955493e+03, 8.06572852e+03, 3.21510010e+03 ]
      - [ 1.08114873e+04, 1.00787939e+03, 1.71071082e+03, 4.27821973e+03,
          4.52360742e+03, 8.28962109e+03, 7.66693408e+03, 8.27976563e+03,
          5.23400586e+03, 4.02551050e+03, 1.02334355e+04, 8.38447266e+03 ]
      - [ 9.15066016e+03, 3.37459106e+03, 2.03447144e+03, 1.95224014e+02,
          2.95624878e+03, 7.66941504e+03, 6.19533447e+03, 3.89508496e+03,
          5.13737158e+03, 2.43361670e+03, 7.72121729e+03, 3.29216235e+03 ]
      - [ 9.73226758e+03, 2.32853003e+03, 0., 3.45876782e+03,
          1.00354785e+03, 9.47299121e+03, 8.25043945e+03, 3.10051978e+03,
          5.30931592e+03, 4.97730273e+03, 6.10970459e+03, 7.34305713e+03 ]
      - [ 7.86095898e+03, 1.77853784e+03, 1.04048065e+02, 4.38987012e+03,
          1.58558899e+03, 7.85316699e+03, 4.41289307e+03, 6.36733740e+03,
          2.18867651e+03, 5.39209863e+03, 9.32577051e+03, 3.72000098e+03 ]
      - [ 1.46393740e+04, 6.24870557e+03, 2.27068268e+02, 6.51543066e+03,
          2.87582788e+03, 1.07006279e+04, 9.03422461e+03, 1.10586592e+04,
          1.36718689e+02, 2.29572314e+03, 1.16115859e+04, 4.77910303e+03 ]
      - [ 7.36754785e+03, 2.38365698e+03, 3.02654915e+01, 2.81739575e+03,
          3.44330762e+03, 6.42227637e+03, 5.89903955e+03, 7.47042139e+03,
          0., 3.23505908e+03, 6.49590283e+03, 6.54750928e+03 ]
      - [ 1.39386758e+04, 4.06650269e+03, 0., 3.61888428e+03,
          4.97520801e+03, 1.37154922e+04, 9.48274023e+03, 6.98569043e+03,
          3.10590967e+03, 5.88573682e+03, 1.29975195e+04, 7.46851514e+03 ]
      - [ 1.19827217e+04, 2.55244629e+03, 9.20217361e+01, 5.76578271e+03,
          9.73350464e+02, 8.36577344e+03, 7.29245020e+03, 1.23404629e+04,
          0., 1.77573901e+03, 1.29194541e+04, 2.76900732e+03 ]
      - [ 1.09244043e+04, 0., 0., 3.76242944e+03, 2.16906738e+03,
          8.17695215e+03, 2.51033813e+03, 1.21841230e+04, 0.,
          2.21904028e+03, 1.06183164e+04, 4.24599658e+03 ]
      - [ 1.05426953e+04, 7.85724487e+02, 0., 8.20108398e+03,
          7.78529785e+03, 4.28139648e+03, 4.53254395e+03, 1.16936279e+04,
          0., 6.33061523e+03, 9.92384473e+03, 7.80707520e+03 ]
      - [ 1.57640859e+04, 1.80094238e+02, 2.82842708e+00, 4.76156731e+01,
          1.09019234e+02, 1.70253262e+04, 8.36223730e+03, 1.77459180e+04,
          1.80968652e+03, 1.95377670e+02, 1.36739521e+04, 8.48377344e+03 ]
      - [ 7.19414355e+03, 1.09342261e+03, 4.30116272e+01, 3.25230762e+03,
          4.84066101e+02, 6.15818359e+03, 4.13969873e+03, 7.87888330e+03,
          3.42344856e+01, 2.18094336e+03, 7.36172998e+03, 3.96561255e+03 ]
      - [ 1.31512627e+04, 4.59900146e+03, 0., 6.44061816e+03,
          3.67341992e+03, 1.24614277e+04, 9.71767578e+03, 1.12755215e+04,
          0., 3.54856372e+03, 1.55495225e+04, 2.77455737e+03 ]
      - [ 1.27816006e+04, 8.12824414e+03, 1.21103264e+02, 3.08181030e+03,
          1.84350562e+03, 1.37709121e+04, 1.06743926e+04, 1.11263301e+04,
          2.69362695e+03, 6.26185596e+03, 1.51111025e+04, 5.42783252e+03 ]
      - [ 1.40508164e+04, 4.99121582e+03, 2.60539697e+03, 7.21955713e+03,
          6.57756592e+03, 1.14692627e+04, 7.41179395e+03, 9.73135742e+03,
          8.32652051e+03, 9.21433789e+03, 9.37914551e+03, 1.00432285e+04 ]
      - [ 6.92475244e+03, 2.48173364e+03, 1.10519055e+03, 5.84538672e+03,
          1.37169946e+03, 6.60553076e+03, 6.06907617e+03, 8.43973438e+03,
          0., 5.09477441e+03, 9.35397461e+03, 8.36473633e+03 ]
      - [ 1.25761504e+04, 5.45205469e+03, 1.90809570e+03, 6.78510742e+03,
          4.47183594e+03, 1.24356855e+04, 1.19426670e+04, 8.04618164e+03,
          2.48413599e+03, 5.55887012e+03, 9.12645605e+03, 8.83313770e+03 ]
      - [ 8.46859277e+03, 3.75930127e+03, 0., 6.04989258e+03,
          3.08145654e+03, 7.17271582e+03, 5.89843506e+03, 7.65466895e+03,
          0., 2.82579297e+03, 7.90483057e+03, 5.21619336e+03 ]
      - [ 1.53170869e+04, 4.78904004e+03, 1.98927124e+02, 5.03752344e+03,
          7.64999878e+02, 1.36123398e+04, 7.67294287e+03, 1.48076563e+04,
          8.91693542e+02, 2.43950415e+03, 1.14276494e+04, 6.94946338e+03 ]
      - [ 9.71077637e+03, 1.22441826e+02, 9.36375961e+01, 8.31423828e+03,
          1.21437610e+03, 6.21290088e+03, 4.22417773e+03, 1.01392676e+04,
          1.62505386e+02, 4.15386768e+03, 1.12696680e+04, 5.95149121e+03 ]
      - [ 1.34452061e+04, 6.32455540e+00, 1.41421354e+00, 8.70057449e+01,
          4.78829773e+02, 1.58213457e+04, 5.24126123e+03, 1.61142627e+04,
          0., 1.94526147e+03, 1.55459521e+04, 5.58964746e+03 ]
      - [ 7.81876660e+03, 3.06585327e+03, 2.10511139e+02, 3.49090088e+03,
          2.02286658e+03, 6.84954590e+03, 3.50179053e+03, 7.05222363e+03,
          0., 5.59650781e+03, 6.33419727e+03, 4.38823926e+03 ]
      - [ 7.89425293e+03, 8.66833344e+01, 6.76017761e+01, 3.41537158e+03,
          1.83222000e+02, 5.78215527e+03, 4.00934692e+03, 9.46331836e+03,
          0., 3.92593933e+02, 8.63397949e+03, 4.13352979e+03 ]
      - [ 1.72212402e+04, 4.49882959e+03, 0., 3.27092163e+03,
          1.30786255e+03, 1.54395723e+04, 1.38261611e+04, 1.47540947e+04,
          3.85138428e+03, 5.62771143e+03, 1.77582012e+04, 1.12167471e+04 ]
      - [ 2.01577676e+04, 4.59491234e+01, 1.32358704e+01, 1.47966919e+01,
          6.88892746e+01, 2.00465684e+04, 9.78146387e+03, 1.63426836e+04,
          3.59086227e+01, 5.20201569e+01, 1.26718232e+04, 8.06929736e+03 ]
      - [ 1.64201016e+04, 6.09548584e+03, 0., 7.20093945e+03,
          3.63928296e+03, 1.54320986e+04, 1.16348877e+04, 1.33500752e+04,
          1.10453606e+01, 3.74772583e+03, 1.59029287e+04, 4.34055371e+03 ]
      - [ 1.34268389e+04, 7.85267139e+03, 0., 5.91840430e+03,
          5.13671924e+03, 1.44311406e+04, 1.45202236e+04, 6.69662061e+03,
          3.87576929e+03, 6.45872168e+03, 1.05581211e+04, 1.34959580e+04 ]
      - [ 1.25500254e+04, 1.35651160e+03, 1.68600113e+02, 2.01472815e+03,
          2.09477246e+03, 1.27626582e+04, 6.63996777e+03, 1.54465254e+04,
          0., 2.42559180e+03, 1.38940166e+04, 8.19520117e+03 ]
      - [ 1.47049326e+04, 1.06898018e+04, 0., 7.55858008e+03,
          6.00033203e+03, 1.45573467e+04, 1.16607363e+04, 8.94589453e+03,
          1.74719141e+03, 6.33660303e+03, 1.53943682e+04, 4.26555957e+03 ]
      - [ 1.19297842e+04, 2.36793799e+03, 0., 2.91380591e+03,
          4.85023340e+03, 1.01509053e+04, 3.46032471e+03, 1.18401455e+04,
          0., 7.71052393e+03, 6.91905713e+03, 5.89865088e+03 ]
      - [ 1.95063594e+04, 6.75288770e+03, 0., 7.11482324e+03,
          2.14301074e+03, 1.50497080e+04, 1.78030547e+04, 1.61844453e+04,
          2.08211792e+02, 1.42570984e+03, 1.19690371e+04, 9.34661230e+03 ]
      - [ 1.10206143e+04, 1.17121753e+03, 3.13008569e+03, 6.19762842e+03,
          2.64200317e+03, 9.53501660e+03, 3.93389160e+03, 1.28810225e+04,
          0., 4.92342139e+03, 1.18153213e+04, 4.02347314e+03 ]
      - [ 9.79277441e+03, 6.88447632e+02, 8.19513306e+02, 4.57649136e+00,
          3.22071655e+03, 1.08061240e+04, 3.50947656e+03, 1.24141328e+04,
          0., 2.18670557e+03, 1.04846436e+04, 5.79171875e+03 ]
      - [ 1.86814570e+04, 8.75206836e+03, 7.30068512e+01, 3.71993066e+03,
          5.64973340e+03, 1.43356963e+04, 1.01178389e+04, 1.07442598e+04,
          5.87963867e+03, 7.86582080e+03, 9.47747461e+03, 6.65152881e+03 ]
      - [ 1.18514268e+04, 4.79856055e+03, 2.65318665e+02, 1.15218079e+03,
          2.98744824e+03, 1.24731123e+04, 5.38006055e+03, 8.48398145e+03,
          1.62550476e+03, 6.80052197e+03, 1.10824922e+04, 4.01844409e+03 ]
      - [ 1.44830781e+04, 1.05359302e+03, 0., 2.02784009e+03,
          2.12602921e+02, 1.34286455e+04, 4.53575342e+03, 1.68592754e+04,
          0., 6.25900940e+02, 1.47564668e+04, 5.18830469e+03 ]
      - [ 1.43705674e+04, 2.50983667e+03, 0., 4.45920166e+03,
          1.71667038e+02, 1.23988369e+04, 1.21909131e+04, 1.44704834e+04,
          0., 5.50614136e+02, 8.17929541e+03, 1.06453213e+04 ]
      - [ 1.18646006e+04, 0., 4.92510101e+02, 6.36998389e+03, 0.,
          8.94462891e+03, 2.83592310e+03, 1.30921045e+04, 4.97835022e+02,
          0., 1.47556279e+04, 4.08149341e+03 ]
      - [ 1.67856055e+04, 1.21982881e+04, 0., 4.39871875e+03,
          6.64645361e+03, 1.75377520e+04, 1.39800371e+04, 6.57561328e+03,
          318., 7.10056885e+03, 1.24680645e+04, 5.75130420e+03 ]
      - [ 1.05554961e+04, 3.50514575e+03, 5.52268066e+01, 2.16195923e+03,
          4.05707690e+03, 9.68844824e+03, 3.46708081e+03, 7.43820361e+03,
          1.92962671e+03, 5.27156445e+03, 8.82280469e+03, 4.30700195e+03 ]
      - [ 1.19034639e+04, 3.79761548e+03, 1.90252457e+02, 3.24206079e+03,
          3.87481958e+03, 1.24710283e+04, 6.15839893e+03, 9.07222266e+03,
          2.44618188e+03, 9.95043262e+03, 1.41975820e+04, 2.75290308e+03 ]
      - [ 1.05320029e+04, 6.66070117e+03, 1.09763293e+03, 2.75288770e+03,
          3.41281909e+03, 1.13767695e+04, 8.57970605e+03, 5.66570166e+03,
          3.36516431e+03, 3.48110913e+03, 1.10722549e+04, 3.91603296e+03 ]
      - [ 1.43554209e+04, 1.62021759e+02, 7.22840149e+02, 2.17205347e+03,
          5.30818506e+03, 1.46901914e+04, 6.49505566e+03, 1.55232754e+04,
          4.87592041e+02, 4.71461768e+03, 1.19848486e+04, 1.02668643e+04 ]
      - [ 1.13886680e+04, 7.64194775e+03, 1.31552277e+02, 6.41150830e+03,
          5.14659375e+03, 1.23726387e+04, 1.22587178e+04, 3.53737671e+03,
          5.62712598e+03, 6.88267676e+03, 9.63709961e+03, 9.22175684e+03 ]
      - [ 1.47403047e+04, 4.58834912e+03, 4.04474983e+01, 5.03344775e+03,
          3.82514502e+03, 1.17072803e+04, 1.07068877e+04, 9.66316992e+03,
          1.87481274e+03, 3.64429541e+03, 1.43274336e+04, 4.50657861e+03 ]
      - [ 9.69726074e+03, 7.97997375e+02, 0., 3.07240796e+03,
          2.60523584e+03, 7.34400439e+03, 4.55190430e+03, 8.83574805e+03,
          0., 7.46526855e+02, 8.72609668e+03, 5.94506836e+03 ]
      - [ 9.47235352e+03, 0., 3.31506378e+02, 1.99305713e+03,
          1.72219165e+03, 8.69211816e+03, 2.66003101e+03, 1.14333086e+04,
          0., 2.19934131e+03, 9.19470117e+03, 3.87138525e+03 ]
      - [ 1.06931113e+04, 3.78583569e+03, 1.38545435e+03, 4.51815527e+03,
          5.01209082e+03, 1.04136758e+04, 9.03905273e+03, 9.77515723e+03,
          3.99680884e+03, 6.41027148e+03, 7.83660693e+03, 9.58493750e+03 ]
      - [ 1.09577148e+04, 5.99502051e+03, 3.63034424e+02, 5.22101318e+03,
          3.50517114e+03, 9.77810449e+03, 8.92535742e+03, 1.08204072e+04,
          1.72921228e+03, 5.93093066e+03, 1.33487588e+04, 3.51132959e+03 ]
      - [ 7.35766699e+03, 2.93593726e+03, 0., 2.59964136e+03,
          3.54358057e+03, 6.71163428e+03, 5.65307324e+03, 5.93968799e+03,
          1.56349866e+03, 5.96578906e+03, 6.59584326e+03, 7.73370557e+03 ]
